digraph Tree {
node [shape=box, style="rounded", color="black", fontname=helvetica] ;
edge [fontname=helvetica] ;
0 [label="genre_Adventure <= 1.0\nmse = 2.840338625438302e+16\nsamples = 2027\nvalue = 87400949.1"] ;
1 [label="genre_Animation <= 2.4\nmse = 1.2931643996707104e+16\nsamples = 1753\nvalue = 59561166.7"] ;
0 -> 1 [labeldistance=2.5, labelangle=45, headlabel="True"] ;
2 [label="key_rich_snob <= 28.1\nmse = 9568424070849336.0\nsamples = 1710\nvalue = 53176839.6"] ;
1 -> 2 ;
3 [label="runtime <= 0.6\nmse = 8369477454689498.0\nsamples = 1709\nvalue = 52505983.3"] ;
2 -> 3 ;
4 [label="runtime <= -0.2\nmse = 6056943753965854.0\nsamples = 1375\nvalue = 40865762.5"] ;
3 -> 4 ;
5 [label="genre_Family <= 1.5\nmse = 3406927104290782.0\nsamples = 867\nvalue = 29975280.2"] ;
4 -> 5 ;
6 [label="genre_Fantasy <= 1.6\nmse = 3038077995765349.0\nsamples = 830\nvalue = 27328272.4"] ;
5 -> 6 ;
7 [label="runtime <= -1.3\nmse = 2929690265016544.5\nsamples = 802\nvalue = 25907117.2"] ;
6 -> 7 ;
8 [label="runtime <= -1.3\nmse = 161211542988904.3\nsamples = 39\nvalue = 2785841.7"] ;
7 -> 8 ;
9 [label="runtime <= -1.8\nmse = 17788879127540.2\nsamples = 31\nvalue = 1353909.7"] ;
8 -> 9 ;
10 [label="runtime <= -2.0\nmse = 110495736464724.6\nsamples = 5\nvalue = 6214804.6"] ;
9 -> 10 ;
11 [label="runtime <= -2.8\nmse = 3688369645450.9\nsamples = 3\nvalue = 1358007.7"] ;
10 -> 11 ;
12 [label="mse = 0.0\nsamples = 1\nvalue = 4074023.0"] ;
11 -> 12 ;
13 [label="mse = 0.0\nsamples = 2\nvalue = 0.0"] ;
11 -> 13 ;
14 [label="mse = 182250000000000.0\nsamples = 2\nvalue = 13500000.0"] ;
10 -> 14 ;
15 [label="genre_Science_Fiction <= 1.4\nmse = 5145389224432.9\nsamples = 26\nvalue = 836793.3"] ;
9 -> 15 ;
16 [label="original_language <= 3.9\nmse = 2992204596629.0\nsamples = 25\nvalue = 518428.5"] ;
15 -> 16 ;
17 [label="runtime <= -1.4\nmse = 650654541360.7\nsamples = 24\nvalue = 287029.2"] ;
16 -> 17 ;
18 [label="runtime <= -1.4\nmse = 948478106231.9\nsamples = 14\nvalue = 451045.8"] ;
17 -> 18 ;
19 [label="runtime <= -1.5\nmse = 614899243105.4\nsamples = 13\nvalue = 232104.5"] ;
18 -> 19 ;
20 [label="mse = 0.0\nsamples = 9\nvalue = 0.0"] ;
19 -> 20 ;
21 [label="original_language <= 1.3\nmse = 1241668764308.7\nsamples = 4\nvalue = 527510.2"] ;
19 -> 21 ;
22 [label="mse = 1851262608018.7\nsamples = 3\nvalue = 967102.0"] ;
21 -> 22 ;
23 [label="mse = 0.0\nsamples = 1\nvalue = 0.0"] ;
21 -> 23 ;
24 [label="mse = 0.0\nsamples = 1\nvalue = 2275557.0"] ;
18 -> 24 ;
25 [label="mse = 0.0\nsamples = 10\nvalue = 0.0"] ;
17 -> 25 ;
26 [label="mse = 0.0\nsamples = 1\nvalue = 10700000.0"] ;
16 -> 26 ;
27 [label="mse = 0.0\nsamples = 1\nvalue = 8000000.0"] ;
15 -> 27 ;
28 [label="original_language <= 0.3\nmse = 783695489293299.4\nsamples = 8\nvalue = 9554974.8"] ;
8 -> 28 ;
29 [label="original_language <= -0.5\nmse = 852022308407259.5\nsamples = 7\nvalue = 10510472.3"] ;
28 -> 29 ;
30 [label="mse = 0.0\nsamples = 1\nvalue = 7267585.0"] ;
29 -> 30 ;
31 [label="mse = 945393142916646.2\nsamples = 6\nvalue = 10870793.1"] ;
29 -> 31 ;
32 [label="mse = 0.0\nsamples = 1\nvalue = 0.0"] ;
28 -> 32 ;
33 [label="runtime <= -1.2\nmse = 3047138447575887.0\nsamples = 763\nvalue = 27138427.7"] ;
7 -> 33 ;
34 [label="runtime <= -1.2\nmse = 5293877558077700.0\nsamples = 27\nvalue = 54612011.8"] ;
33 -> 34 ;
35 [label="genre_Science_Fiction <= 1.4\nmse = 2621588176653985.5\nsamples = 11\nvalue = 28106220.8"] ;
34 -> 35 ;
36 [label="mse = 2745524668064454.5\nsamples = 10\nvalue = 26051635.6"] ;
35 -> 36 ;
37 [label="mse = -4.0\nsamples = 1\nvalue = 56870414.0"] ;
35 -> 37 ;
38 [label="original_language <= 3.2\nmse = 6250524011381565.0\nsamples = 16\nvalue = 71178131.2"] ;
34 -> 38 ;
39 [label="mse = 6316307877311055.0\nsamples = 15\nvalue = 77648870.4"] ;
38 -> 39 ;
40 [label="mse = 0.0\nsamples = 1\nvalue = 0.0"] ;
38 -> 40 ;
41 [label="runtime <= -0.8\nmse = 2943936106313610.0\nsamples = 736\nvalue = 26201828.3"] ;
33 -> 41 ;
42 [label="genre_Science_Fiction <= 1.4\nmse = 1950819272454785.2\nsamples = 225\nvalue = 18304103.7"] ;
41 -> 42 ;
43 [label="runtime <= -0.9\nmse = 1925957758249246.0\nsamples = 212\nvalue = 17351759.1"] ;
42 -> 43 ;
44 [label="original_language <= 1.3\nmse = 1209271106032412.5\nsamples = 122\nvalue = 15039681.4"] ;
43 -> 44 ;
45 [label="runtime <= -1.0\nmse = 1225326368723095.0\nsamples = 121\nvalue = 15286233.5"] ;
44 -> 45 ;
46 [label="runtime <= -1.1\nmse = 1286872832348165.8\nsamples = 68\nvalue = 16667568.3"] ;
45 -> 46 ;
47 [label="runtime <= -1.1\nmse = 715295494896066.8\nsamples = 38\nvalue = 13849812.3"] ;
46 -> 47 ;
48 [label="mse = 647461288882522.4\nsamples = 18\nvalue = 13034735.6"] ;
47 -> 48 ;
49 [label="mse = 777550418907714.0\nsamples = 20\nvalue = 14612303.5"] ;
47 -> 49 ;
50 [label="mse = 2114464780806605.5\nsamples = 30\nvalue = 20894202.2"] ;
46 -> 50 ;
51 [label="runtime <= -1.0\nmse = 1146105347316485.8\nsamples = 53\nvalue = 13621974.8"] ;
45 -> 51 ;
52 [label="mse = 459914827573398.1\nsamples = 21\nvalue = 11374929.0"] ;
51 -> 52 ;
53 [label="mse = 1571500277754760.5\nsamples = 32\nvalue = 15031885.9"] ;
51 -> 53 ;
54 [label="mse = 0.0\nsamples = 1\nvalue = 0.0"] ;
44 -> 54 ;
55 [label="original_language <= 0.0\nmse = 2799800981631452.5\nsamples = 90\nvalue = 20218735.4"] ;
43 -> 55 ;
56 [label="runtime <= -0.9\nmse = 2848426714665280.5\nsamples = 88\nvalue = 20631362.7"] ;
55 -> 56 ;
57 [label="mse = 1135283190732175.0\nsamples = 29\nvalue = 24686407.4"] ;
56 -> 57 ;
58 [label="original_language <= -0.5\nmse = 3570229958757500.5\nsamples = 59\nvalue = 18899110.5"] ;
56 -> 58 ;
59 [label="mse = 0.0\nsamples = 1\nvalue = 0.0"] ;
58 -> 59 ;
60 [label="mse = 3601696153370993.0\nsamples = 58\nvalue = 19084395.9"] ;
58 -> 60 ;
61 [label="original_language <= 0.5\nmse = 42.7\nsamples = 2\nvalue = 0.0"] ;
55 -> 61 ;
62 [label="mse = 0.0\nsamples = 1\nvalue = 0.0"] ;
61 -> 62 ;
63 [label="mse = 0.0\nsamples = 1\nvalue = 0.0"] ;
61 -> 63 ;
64 [label="runtime <= -0.9\nmse = 2107206056813596.0\nsamples = 13\nvalue = 32216616.2"] ;
42 -> 64 ;
65 [label="runtime <= -1.0\nmse = 1546862366956798.0\nsamples = 10\nvalue = 23958373.6"] ;
64 -> 65 ;
66 [label="runtime <= -1.1\nmse = 1790287403965527.5\nsamples = 8\nvalue = 27229215.1"] ;
65 -> 66 ;
67 [label="mse = 0.0\nsamples = 1\nvalue = 17507368.0"] ;
66 -> 67 ;
68 [label="runtime <= -1.1\nmse = 2394434404572544.5\nsamples = 7\nvalue = 30764432.3"] ;
66 -> 68 ;
69 [label="mse = 4551097605327783.0\nsamples = 3\nvalue = 35854363.6"] ;
68 -> 69 ;
70 [label="runtime <= -1.0\nmse = 557634319209864.8\nsamples = 4\nvalue = 26522822.8"] ;
68 -> 70 ;
71 [label="mse = 0.0\nsamples = 1\nvalue = 25562924.0"] ;
70 -> 71 ;
72 [label="mse = 835760424487120.8\nsamples = 3\nvalue = 27002772.2"] ;
70 -> 72 ;
73 [label="mse = 8785043105557.2\nsamples = 2\nvalue = 7604165.7"] ;
65 -> 73 ;
74 [label="runtime <= -0.9\nmse = 2995075002159077.5\nsamples = 3\nvalue = 61946289.6"] ;
64 -> 74 ;
75 [label="mse = 742871001132488.0\nsamples = 2\nvalue = 103172110.0"] ;
74 -> 75 ;
76 [label="mse = 1.0\nsamples = 1\nvalue = 107559.0"] ;
74 -> 76 ;
77 [label="original_language <= 0.0\nmse = 3356542615515954.5\nsamples = 511\nvalue = 29813653.9"] ;
41 -> 77 ;
78 [label="genre_Science_Fiction <= 1.4\nmse = 3434117951075797.0\nsamples = 498\nvalue = 30743110.0"] ;
77 -> 78 ;
79 [label="original_language <= -1.0\nmse = 3386932797691790.5\nsamples = 475\nvalue = 29828326.7"] ;
78 -> 79 ;
80 [label="original_language <= -1.4\nmse = 6222815475016033.0\nsamples = 4\nvalue = 74478409.4"] ;
79 -> 80 ;
81 [label="runtime <= -0.6\nmse = 233165490855602.0\nsamples = 3\nvalue = 10797349.0"] ;
80 -> 81 ;
82 [label="mse = 0.0\nsamples = 1\nvalue = 32392047.0"] ;
81 -> 82 ;
83 [label="mse = 0.0\nsamples = 2\nvalue = 0.0"] ;
81 -> 83 ;
84 [label="mse = 0.0\nsamples = 1\nvalue = 170000000.0"] ;
80 -> 84 ;
85 [label="runtime <= -0.8\nmse = 3353623142183304.0\nsamples = 471\nvalue = 29521242.2"] ;
79 -> 85 ;
86 [label="mse = 4918679885679912.0\nsamples = 37\nvalue = 39890188.9"] ;
85 -> 86 ;
87 [label="runtime <= -0.6\nmse = 3202296906631136.0\nsamples = 434\nvalue = 28588503.4"] ;
85 -> 87 ;
88 [label="status <= 14.1\nmse = 1279638385053393.5\nsamples = 101\nvalue = 19599419.5"] ;
87 -> 88 ;
89 [label="original_language <= -0.3\nmse = 1285151532718007.5\nsamples = 100\nvalue = 19720403.6"] ;
88 -> 89 ;
90 [label="mse = 0.0\nsamples = 1\nvalue = 110197.0"] ;
89 -> 90 ;
91 [label="runtime <= -0.7\nmse = 1290730431830947.0\nsamples = 99\nvalue = 19842206.1"] ;
89 -> 91 ;
92 [label="runtime <= -0.7\nmse = 1310249953595953.0\nsamples = 66\nvalue = 18791784.6"] ;
91 -> 92 ;
93 [label="mse = 1698232562800896.2\nsamples = 37\nvalue = 20609804.9"] ;
92 -> 93 ;
94 [label="mse = 891771157877352.0\nsamples = 29\nvalue = 16864683.1"] ;
92 -> 94 ;
95 [label="mse = 1250627262587162.5\nsamples = 33\nvalue = 21707609.8"] ;
91 -> 95 ;
96 [label="mse = 0.0\nsamples = 1\nvalue = 0.0"] ;
88 -> 96 ;
97 [label="runtime <= -0.4\nmse = 3789524449688009.0\nsamples = 333\nvalue = 31495687.2"] ;
87 -> 97 ;
98 [label="runtime <= -0.5\nmse = 4379953592567660.0\nsamples = 152\nvalue = 34595498.8"] ;
97 -> 98 ;
99 [label="runtime <= -0.5\nmse = 3859036630414989.0\nsamples = 109\nvalue = 32560964.6"] ;
98 -> 99 ;
100 [label="runtime <= -0.6\nmse = 4800271912794403.0\nsamples = 70\nvalue = 36092416.3"] ;
99 -> 100 ;
101 [label="mse = 4429406189331369.5\nsamples = 33\nvalue = 32601867.1"] ;
100 -> 101 ;
102 [label="mse = 5080447355561833.0\nsamples = 37\nvalue = 38895433.1"] ;
100 -> 102 ;
103 [label="mse = 1813608897250992.5\nsamples = 39\nvalue = 25188284.8"] ;
99 -> 103 ;
104 [label="mse = 5963225429158870.0\nsamples = 43\nvalue = 40989749.2"] ;
98 -> 104 ;
105 [label="runtime <= -0.4\nmse = 3270736845174025.0\nsamples = 181\nvalue = 28851730.3"] ;
97 -> 105 ;
106 [label="mse = 374481918205256.0\nsamples = 35\nvalue = 9924876.9"] ;
105 -> 106 ;
107 [label="original_language <= -0.5\nmse = 3891003678645411.0\nsamples = 146\nvalue = 33648859.0"] ;
105 -> 107 ;
108 [label="mse = 0.0\nsamples = 1\nvalue = 0.0"] ;
107 -> 108 ;
109 [label="runtime <= -0.3\nmse = 3916568566525785.0\nsamples = 145\nvalue = 33961871.7"] ;
107 -> 109 ;
110 [label="mse = 5351961448665301.0\nsamples = 49\nvalue = 37709685.9"] ;
109 -> 110 ;
111 [label="runtime <= -0.3\nmse = 3213565868171175.0\nsamples = 96\nvalue = 32152582.0"] ;
109 -> 111 ;
112 [label="mse = 1379034331191531.0\nsamples = 29\nvalue = 27877320.9"] ;
111 -> 112 ;
113 [label="runtime <= -0.2\nmse = 3975993096040145.0\nsamples = 67\nvalue = 33954898.0"] ;
111 -> 113 ;
114 [label="mse = 3634641278950439.0\nsamples = 31\nvalue = 32634767.7"] ;
113 -> 114 ;
115 [label="mse = 4264931850601753.5\nsamples = 36\nvalue = 35083009.3"] ;
113 -> 115 ;
116 [label="runtime <= -0.6\nmse = 4070847380932323.0\nsamples = 23\nvalue = 53833502.3"] ;
78 -> 116 ;
117 [label="runtime <= -0.7\nmse = 8090659518957690.0\nsamples = 6\nvalue = 86285107.9"] ;
116 -> 117 ;
118 [label="mse = 4766264132645334.0\nsamples = 2\nvalue = 114586465.3"] ;
117 -> 118 ;
119 [label="mse = 9025012542130768.0\nsamples = 4\nvalue = 74155954.7"] ;
117 -> 119 ;
120 [label="runtime <= -0.4\nmse = 1109170787784667.6\nsamples = 17\nvalue = 36753709.9"] ;
116 -> 120 ;
121 [label="runtime <= -0.5\nmse = 288395017425716.0\nsamples = 10\nvalue = 22010787.5"] ;
120 -> 121 ;
122 [label="runtime <= -0.6\nmse = 76704782895119.1\nsamples = 5\nvalue = 33014062.4"] ;
121 -> 122 ;
123 [label="mse = 95577205821682.0\nsamples = 4\nvalue = 32767578.0"] ;
122 -> 123 ;
124 [label="mse = 0.0\nsamples = 1\nvalue = 34000000.0"] ;
122 -> 124 ;
125 [label="runtime <= -0.5\nmse = 257941134906373.0\nsamples = 5\nvalue = 11007512.6"] ;
121 -> 125 ;
126 [label="mse = 16635032439477.6\nsamples = 3\nvalue = 4223674.3"] ;
125 -> 126 ;
127 [label="mse = 447323557500625.0\nsamples = 2\nvalue = 21183270.0"] ;
125 -> 127 ;
128 [label="runtime <= -0.3\nmse = 1511301707505327.0\nsamples = 7\nvalue = 53134734.9"] ;
120 -> 128 ;
129 [label="runtime <= -0.4\nmse = 1558234600113084.0\nsamples = 6\nvalue = 62382768.9"] ;
128 -> 129 ;
130 [label="mse = 1779027273638330.0\nsamples = 4\nvalue = 53891216.0"] ;
129 -> 130 ;
131 [label="mse = 375321304450521.0\nsamples = 2\nvalue = 83611651.0"] ;
129 -> 131 ;
132 [label="mse = 0.0\nsamples = 1\nvalue = 20766616.0"] ;
128 -> 132 ;
133 [label="original_language <= 1.4\nmse = 796068012249.1\nsamples = 13\nvalue = 342151.0"] ;
77 -> 133 ;
134 [label="runtime <= -0.5\nmse = 117612.0\nsamples = 6\nvalue = 198.0"] ;
133 -> 134 ;
135 [label="mse = 0.0\nsamples = 3\nvalue = 0.0"] ;
134 -> 135 ;
136 [label="runtime <= -0.4\nmse = 156816.0\nsamples = 3\nvalue = 396.0"] ;
134 -> 136 ;
137 [label="mse = 0.0\nsamples = 1\nvalue = 792.0"] ;
136 -> 137 ;
138 [label="mse = 0.0\nsamples = 2\nvalue = 0.0"] ;
136 -> 138 ;
139 [label="original_language <= 3.2\nmse = 1106403047629.6\nsamples = 7\nvalue = 513127.6"] ;
133 -> 139 ;
140 [label="mse = 0.0\nsamples = 1\nvalue = 4105187.0"] ;
139 -> 140 ;
141 [label="original_language <= 5.1\nmse = 262624335069.3\nsamples = 6\nvalue = 273656.9"] ;
139 -> 141 ;
142 [label="original_language <= 4.5\nmse = 354498206047.2\nsamples = 3\nvalue = 456094.9"] ;
141 -> 142 ;
143 [label="mse = 70237720576.0\nsamples = 2\nvalue = 265024.0"] ;
142 -> 143 ;
144 [label="mse = 0.0\nsamples = 1\nvalue = 1984662.0"] ;
142 -> 144 ;
145 [label="mse = 0.0\nsamples = 3\nvalue = 0.0"] ;
141 -> 145 ;
146 [label="runtime <= -1.0\nmse = 4424448261927221.0\nsamples = 28\nvalue = 68508722.5"] ;
6 -> 146 ;
147 [label="genre_Science_Fiction <= 1.4\nmse = 39667781750285.0\nsamples = 2\nvalue = 3247135.2"] ;
146 -> 147 ;
148 [label="mse = 0.0\nsamples = 1\nvalue = 98017.0"] ;
147 -> 148 ;
149 [label="mse = 0.0\nsamples = 1\nvalue = 15843608.0"] ;
147 -> 149 ;
150 [label="runtime <= -0.9\nmse = 4367251042067791.0\nsamples = 26\nvalue = 77095773.4"] ;
146 -> 150 ;
151 [label="mse = 1046225030541600.0\nsamples = 2\nvalue = 192458073.0"] ;
150 -> 151 ;
152 [label="genre_Science_Fiction <= 1.4\nmse = 3771318095166927.0\nsamples = 24\nvalue = 70686756.8"] ;
150 -> 152 ;
153 [label="runtime <= -0.3\nmse = 4475360291997313.0\nsamples = 17\nvalue = 81128101.2"] ;
152 -> 153 ;
154 [label="runtime <= -0.3\nmse = 4415246935826429.0\nsamples = 16\nvalue = 86693484.8"] ;
153 -> 154 ;
155 [label="runtime <= -0.6\nmse = 2002670647021014.0\nsamples = 10\nvalue = 69139538.8"] ;
154 -> 155 ;
156 [label="runtime <= -0.7\nmse = 720171160666218.0\nsamples = 3\nvalue = 111768574.8"] ;
155 -> 156 ;
157 [label="mse = 0.0\nsamples = 1\nvalue = 73326666.0"] ;
156 -> 157 ;
158 [label="runtime <= -0.6\nmse = 303436948291260.0\nsamples = 2\nvalue = 124582544.3"] ;
156 -> 158 ;
159 [label="mse = 0.0\nsamples = 1\nvalue = 112265139.0"] ;
158 -> 159 ;
160 [label="mse = 0.0\nsamples = 1\nvalue = 149217355.0"] ;
158 -> 160 ;
161 [label="runtime <= -0.4\nmse = 1498019005506088.0\nsamples = 7\nvalue = 52087924.4"] ;
155 -> 161 ;
162 [label="runtime <= -0.4\nmse = 1629713668259690.2\nsamples = 5\nvalue = 44377446.7"] ;
161 -> 162 ;
163 [label="runtime <= -0.5\nmse = 1872174112124414.5\nsamples = 3\nvalue = 49918598.4"] ;
162 -> 163 ;
164 [label="mse = 0.0\nsamples = 1\nvalue = 56681566.0"] ;
163 -> 164 ;
165 [label="mse = 2325924599293440.0\nsamples = 2\nvalue = 48227856.5"] ;
163 -> 165 ;
166 [label="mse = 754899391062055.8\nsamples = 2\nvalue = 30524567.5"] ;
162 -> 166 ;
167 [label="mse = 728331166866259.0\nsamples = 2\nvalue = 70079039.0"] ;
161 -> 167 ;
168 [label="mse = 6594481574179106.0\nsamples = 6\nvalue = 109034870.6"] ;
154 -> 168 ;
169 [label="mse = 28.0\nsamples = 1\nvalue = 11560806.0"] ;
153 -> 169 ;
170 [label="runtime <= -0.5\nmse = 350931435227506.8\nsamples = 7\nvalue = 39362723.7"] ;
152 -> 170 ;
171 [label="runtime <= -0.6\nmse = 61209160870783.5\nsamples = 4\nvalue = 51065177.7"] ;
170 -> 171 ;
172 [label="mse = 0.0\nsamples = 1\nvalue = 41797066.0"] ;
171 -> 172 ;
173 [label="runtime <= -0.6\nmse = 27390320906823.0\nsamples = 3\nvalue = 55699233.5"] ;
171 -> 173 ;
174 [label="mse = 20137067988844.5\nsamples = 2\nvalue = 57723051.7"] ;
173 -> 174 ;
175 [label="mse = -1.0\nsamples = 1\nvalue = 49627779.0"] ;
173 -> 175 ;
176 [label="runtime <= -0.4\nmse = 108691406208245.2\nsamples = 3\nvalue = 15957815.7"] ;
170 -> 176 ;
177 [label="runtime <= -0.4\nmse = 26489231139361.0\nsamples = 2\nvalue = 9211264.0"] ;
176 -> 177 ;
178 [label="mse = 0.0\nsamples = 1\nvalue = 4064495.0"] ;
177 -> 178 ;
179 [label="mse = 0.0\nsamples = 1\nvalue = 14358033.0"] ;
177 -> 179 ;
180 [label="mse = 0.0\nsamples = 1\nvalue = 29450919.0"] ;
176 -> 180 ;
181 [label="genre_Fantasy <= 1.6\nmse = 8051889176993978.0\nsamples = 37\nvalue = 93160337.1"] ;
5 -> 181 ;
182 [label="runtime <= -0.6\nmse = 4026830769088385.5\nsamples = 24\nvalue = 73552518.8"] ;
181 -> 182 ;
183 [label="runtime <= -0.8\nmse = 4181615496555213.0\nsamples = 17\nvalue = 83481033.2"] ;
182 -> 183 ;
184 [label="original_language <= 0.3\nmse = 1907456706307065.5\nsamples = 9\nvalue = 58567024.8"] ;
183 -> 184 ;
185 [label="runtime <= -1.0\nmse = 1360039967098234.0\nsamples = 8\nvalue = 47978530.3"] ;
184 -> 185 ;
186 [label="runtime <= -1.1\nmse = 85771418373796.0\nsamples = 2\nvalue = 9401952.0"] ;
185 -> 186 ;
187 [label="mse = 0.0\nsamples = 1\nvalue = 18663238.0"] ;
186 -> 187 ;
188 [label="mse = 0.0\nsamples = 1\nvalue = 140666.0"] ;
186 -> 188 ;
189 [label="runtime <= -0.8\nmse = 1271956874782284.5\nsamples = 6\nvalue = 54992453.6"] ;
185 -> 189 ;
190 [label="genre_Science_Fiction <= 1.4\nmse = 1269510772219336.5\nsamples = 5\nvalue = 62192241.3"] ;
189 -> 190 ;
191 [label="runtime <= -0.9\nmse = 1898701163890155.2\nsamples = 4\nvalue = 63554224.5"] ;
190 -> 191 ;
192 [label="mse = 1534948912302254.0\nsamples = 2\nvalue = 64515980.7"] ;
191 -> 192 ;
193 [label="mse = 2260603465629812.5\nsamples = 2\nvalue = 62592468.3"] ;
191 -> 193 ;
194 [label="mse = 0.5\nsamples = 1\nvalue = 59468275.0"] ;
190 -> 194 ;
195 [label="mse = -1.0\nsamples = 1\nvalue = 22593409.0"] ;
189 -> 195 ;
196 [label="mse = -8.0\nsamples = 1\nvalue = 127392239.0"] ;
184 -> 196 ;
197 [label="runtime <= -0.7\nmse = 5278573252814452.0\nsamples = 8\nvalue = 114623543.8"] ;
183 -> 197 ;
198 [label="mse = 4.0\nsamples = 1\nvalue = 164433867.0"] ;
197 -> 198 ;
199 [label="runtime <= -0.6\nmse = 5935400647188388.0\nsamples = 7\nvalue = 98020102.7"] ;
197 -> 199 ;
200 [label="genre_Science_Fiction <= 1.4\nmse = 3482951486368563.0\nsamples = 5\nvalue = 66159989.5"] ;
199 -> 200 ;
201 [label="mse = 3973365088310492.0\nsamples = 4\nvalue = 72021967.2"] ;
200 -> 201 ;
202 [label="mse = -1.0\nsamples = 1\nvalue = 36850101.0"] ;
200 -> 202 ;
203 [label="mse = 4749898102871204.0\nsamples = 2\nvalue = 161740329.0"] ;
199 -> 203 ;
204 [label="runtime <= -0.4\nmse = 2624143764013285.0\nsamples = 7\nvalue = 46745529.7"] ;
182 -> 204 ;
205 [label="runtime <= -0.5\nmse = 152178992455722.6\nsamples = 4\nvalue = 19770238.9"] ;
204 -> 205 ;
206 [label="mse = 208269409483950.2\nsamples = 2\nvalue = 10770233.3"] ;
205 -> 206 ;
207 [label="mse = 3798549184512.0\nsamples = 2\nvalue = 26520243.0"] ;
205 -> 207 ;
208 [label="runtime <= -0.4\nmse = 2732434661650802.0\nsamples = 3\nvalue = 109687875.0"] ;
204 -> 208 ;
209 [label="mse = 0.0\nsamples = 1\nvalue = 72417394.0"] ;
208 -> 209 ;
210 [label="mse = 3056835426997684.0\nsamples = 2\nvalue = 128323115.5"] ;
208 -> 210 ;
211 [label="runtime <= -1.0\nmse = 1.4154302979652268e+16\nsamples = 13\nvalue = 135836177.1"] ;
181 -> 211 ;
212 [label="runtime <= -1.1\nmse = 1.2013189962107648e+16\nsamples = 4\nvalue = 75563356.6"] ;
211 -> 212 ;
213 [label="mse = 0.0\nsamples = 1\nvalue = 12506188.0"] ;
212 -> 213 ;
214 [label="runtime <= -1.1\nmse = 1.37739229176818e+16\nsamples = 3\nvalue = 91327648.8"] ;
212 -> 214 ;
215 [label="mse = 1.5862785109179916e+16\nsamples = 2\nvalue = 116339873.0"] ;
214 -> 215 ;
216 [label="mse = 0.0\nsamples = 1\nvalue = 16290976.0"] ;
214 -> 216 ;
217 [label="runtime <= -0.8\nmse = 1.2902064681976664e+16\nsamples = 9\nvalue = 160949852.3"] ;
211 -> 217 ;
218 [label="runtime <= -0.9\nmse = 1701244925267712.0\nsamples = 2\nvalue = 283300342.7"] ;
217 -> 218 ;
219 [label="mse = 0.0\nsamples = 1\nvalue = 254134910.0"] ;
218 -> 219 ;
220 [label="mse = 0.0\nsamples = 1\nvalue = 341631208.0"] ;
218 -> 220 ;
221 [label="runtime <= -0.4\nmse = 9982496829854276.0\nsamples = 7\nvalue = 120166355.6"] ;
217 -> 221 ;
222 [label="runtime <= -0.5\nmse = 7272554090705763.0\nsamples = 6\nvalue = 99196125.8"] ;
221 -> 222 ;
223 [label="runtime <= -0.6\nmse = 4555141286248230.0\nsamples = 3\nvalue = 57474382.0"] ;
222 -> 223 ;
224 [label="mse = 0.0\nsamples = 1\nvalue = 2119994.0"] ;
223 -> 224 ;
225 [label="mse = 4711695816840064.0\nsamples = 2\nvalue = 75925844.7"] ;
223 -> 225 ;
226 [label="runtime <= -0.5\nmse = 6508559092081968.0\nsamples = 3\nvalue = 140917869.5"] ;
222 -> 226 ;
227 [label="mse = 0.0\nsamples = 1\nvalue = 173398518.0"] ;
226 -> 227 ;
228 [label="mse = 1.0907133130202836e+16\nsamples = 2\nvalue = 108437221.0"] ;
226 -> 228 ;
229 [label="mse = -16.0\nsamples = 1\nvalue = 287928194.0"] ;
221 -> 229 ;
230 [label="genre_Fantasy <= 1.6\nmse = 1.0013011747203692e+16\nsamples = 508\nvalue = 59356176.9"] ;
4 -> 230 ;
231 [label="genre_Science_Fiction <= 1.4\nmse = 9336741442709276.0\nsamples = 484\nvalue = 55687437.5"] ;
230 -> 231 ;
232 [label="original_language <= 0.0\nmse = 8515611622471574.0\nsamples = 451\nvalue = 51637128.7"] ;
231 -> 232 ;
233 [label="runtime <= -0.1\nmse = 8970196033250621.0\nsamples = 420\nvalue = 55089690.6"] ;
232 -> 233 ;
234 [label="runtime <= -0.1\nmse = 3899608602970173.5\nsamples = 106\nvalue = 41211919.3"] ;
233 -> 234 ;
235 [label="runtime <= -0.1\nmse = 4400181128953968.0\nsamples = 74\nvalue = 44125519.5"] ;
234 -> 235 ;
236 [label="mse = 4206628149927103.0\nsamples = 41\nvalue = 45078633.3"] ;
235 -> 236 ;
237 [label="mse = 4599399298287420.0\nsamples = 33\nvalue = 43135028.6"] ;
235 -> 237 ;
238 [label="mse = 2804033395630733.0\nsamples = 32\nvalue = 35151630.8"] ;
234 -> 238 ;
239 [label="runtime <= -0.0\nmse = 1.0451422375832166e+16\nsamples = 314\nvalue = 59355512.6"] ;
233 -> 239 ;
240 [label="original_language <= -0.5\nmse = 4.453247209532008e+16\nsamples = 27\nvalue = 114275633.2"] ;
239 -> 240 ;
241 [label="mse = 0.0\nsamples = 1\nvalue = 19000000.0"] ;
240 -> 241 ;
242 [label="genre_Family <= 1.5\nmse = 4.748417228279777e+16\nsamples = 26\nvalue = 122384197.7"] ;
240 -> 242 ;
243 [label="mse = 5.2001079149939144e+16\nsamples = 24\nvalue = 132620104.9"] ;
242 -> 243 ;
244 [label="mse = 1269215611653701.5\nsamples = 2\nvalue = 36402577.0"] ;
242 -> 244 ;
245 [label="runtime <= 0.3\nmse = 6208323515809180.0\nsamples = 287\nvalue = 53131232.3"] ;
239 -> 245 ;
246 [label="runtime <= 0.1\nmse = 4612239212140172.0\nsamples = 161\nvalue = 47937794.0"] ;
245 -> 246 ;
247 [label="runtime <= 0.1\nmse = 6098392555392557.0\nsamples = 78\nvalue = 59898836.1"] ;
246 -> 247 ;
248 [label="runtime <= 0.0\nmse = 5366729948068634.0\nsamples = 45\nvalue = 49568285.0"] ;
247 -> 248 ;
249 [label="mse = 6303862655260668.0\nsamples = 29\nvalue = 58302644.0"] ;
248 -> 249 ;
250 [label="status <= -14.1\nmse = 2835227180157838.5\nsamples = 16\nvalue = 30789412.9"] ;
248 -> 250 ;
251 [label="mse = 0.0\nsamples = 1\nvalue = 841733.0"] ;
250 -> 251 ;
252 [label="mse = 2934761933052969.0\nsamples = 15\nvalue = 32365606.6"] ;
250 -> 252 ;
253 [label="mse = 6666384801203440.0\nsamples = 33\nvalue = 71520706.2"] ;
247 -> 253 ;
254 [label="runtime <= 0.2\nmse = 2945919744485781.5\nsamples = 83\nvalue = 36641254.2"] ;
246 -> 254 ;
255 [label="mse = 1961003568680899.2\nsamples = 23\nvalue = 25200540.1"] ;
254 -> 255 ;
256 [label="runtime <= 0.2\nmse = 3221483305126522.0\nsamples = 60\nvalue = 40535965.4"] ;
254 -> 256 ;
257 [label="genre_Family <= 1.5\nmse = 5807261291164947.0\nsamples = 15\nvalue = 58393321.6"] ;
256 -> 257 ;
258 [label="mse = 6671752546083059.0\nsamples = 14\nvalue = 52175235.0"] ;
257 -> 258 ;
259 [label="mse = 0.0\nsamples = 1\nvalue = 91038276.0"] ;
257 -> 259 ;
260 [label="runtime <= 0.3\nmse = 2127207486627210.5\nsamples = 45\nvalue = 34065908.8"] ;
256 -> 260 ;
261 [label="genre_Family <= 1.5\nmse = 3239290555415724.0\nsamples = 20\nvalue = 37068308.7"] ;
260 -> 261 ;
262 [label="original_language <= -1.0\nmse = 3231071424727486.0\nsamples = 19\nvalue = 35132271.1"] ;
261 -> 262 ;
263 [label="mse = 0.0\nsamples = 1\nvalue = 42776760.0"] ;
262 -> 263 ;
264 [label="mse = 3717785689472673.5\nsamples = 18\nvalue = 33956195.9"] ;
262 -> 264 ;
265 [label="mse = -8.0\nsamples = 1\nvalue = 95149435.0"] ;
261 -> 265 ;
266 [label="genre_Family <= 1.5\nmse = 1206628769966663.8\nsamples = 25\nvalue = 31616582.7"] ;
260 -> 266 ;
267 [label="mse = 1325104744653349.0\nsamples = 24\nvalue = 33188720.0"] ;
266 -> 267 ;
268 [label="mse = -1.0\nsamples = 1\nvalue = 18253415.0"] ;
266 -> 268 ;
269 [label="runtime <= 0.4\nmse = 8045080044130214.0\nsamples = 126\nvalue = 59338024.3"] ;
245 -> 269 ;
270 [label="genre_Family <= 1.5\nmse = 1.712541641965711e+16\nsamples = 22\nvalue = 95588904.8"] ;
269 -> 270 ;
271 [label="original_language <= -0.6\nmse = 1.696149191589626e+16\nsamples = 21\nvalue = 91221449.8"] ;
270 -> 271 ;
272 [label="mse = 0.0\nsamples = 1\nvalue = 16800000.0"] ;
271 -> 272 ;
273 [label="mse = 1.7302555698202812e+16\nsamples = 20\nvalue = 93476645.2"] ;
271 -> 273 ;
274 [label="mse = -64.0\nsamples = 1\nvalue = 244082376.0"] ;
270 -> 274 ;
275 [label="original_language <= -0.5\nmse = 5849341016755731.0\nsamples = 104\nvalue = 51874607.8"] ;
269 -> 275 ;
276 [label="original_language <= -1.1\nmse = 1705054879506.2\nsamples = 2\nvalue = 1305777.5"] ;
275 -> 276 ;
277 [label="mse = 0.0\nsamples = 1\nvalue = 0.0"] ;
276 -> 277 ;
278 [label="mse = 0.0\nsamples = 1\nvalue = 2611555.0"] ;
276 -> 278 ;
279 [label="genre_Family <= 1.5\nmse = 5888150379054454.0\nsamples = 102\nvalue = 52476617.6"] ;
275 -> 279 ;
280 [label="runtime <= 0.6\nmse = 5958990836012724.0\nsamples = 99\nvalue = 51813847.2"] ;
279 -> 280 ;
281 [label="runtime <= 0.5\nmse = 5936334914770558.0\nsamples = 76\nvalue = 52993694.6"] ;
280 -> 281 ;
282 [label="runtime <= 0.4\nmse = 6001490215138705.0\nsamples = 58\nvalue = 51748985.0"] ;
281 -> 282 ;
283 [label="mse = 4909558773782046.0\nsamples = 19\nvalue = 54131533.0"] ;
282 -> 283 ;
284 [label="runtime <= 0.5\nmse = 6425677297174270.0\nsamples = 39\nvalue = 50816683.7"] ;
282 -> 284 ;
285 [label="mse = 3236478448382004.5\nsamples = 22\nvalue = 49304528.8"] ;
284 -> 285 ;
286 [label="mse = 1.0107487566349656e+16\nsamples = 17\nvalue = 52565112.8"] ;
284 -> 286 ;
287 [label="mse = 5714908001285820.0\nsamples = 18\nvalue = 56848279.2"] ;
281 -> 287 ;
288 [label="mse = 6015577223201090.0\nsamples = 23\nvalue = 47764100.5"] ;
280 -> 288 ;
289 [label="runtime <= 0.5\nmse = 2227277873990444.8\nsamples = 3\nvalue = 79650206.2"] ;
279 -> 289 ;
290 [label="runtime <= 0.5\nmse = 1665453475140050.0\nsamples = 2\nvalue = 61593003.0"] ;
289 -> 290 ;
291 [label="mse = 0.0\nsamples = 1\nvalue = 90450008.0"] ;
290 -> 291 ;
292 [label="mse = -1.0\nsamples = 1\nvalue = 3878993.0"] ;
290 -> 292 ;
293 [label="mse = 0.0\nsamples = 1\nvalue = 133821816.0"] ;
289 -> 293 ;
294 [label="original_language <= 0.6\nmse = 149713322149139.5\nsamples = 31\nvalue = 5485535.7"] ;
232 -> 294 ;
295 [label="runtime <= 0.3\nmse = 2790165699.9\nsamples = 7\nvalue = 22523.4"] ;
294 -> 295 ;
296 [label="runtime <= 0.1\nmse = 4374192980.4\nsamples = 4\nvalue = 41829.1"] ;
295 -> 296 ;
297 [label="mse = 0.0\nsamples = 3\nvalue = 0.0"] ;
296 -> 297 ;
298 [label="mse = 0.0\nsamples = 1\nvalue = 146402.0"] ;
296 -> 298 ;
299 [label="mse = 0.0\nsamples = 3\nvalue = 0.0"] ;
295 -> 299 ;
300 [label="runtime <= -0.1\nmse = 189106516562986.6\nsamples = 24\nvalue = 7458290.2"] ;
294 -> 300 ;
301 [label="original_language <= 1.1\nmse = 1961805124212.6\nsamples = 6\nvalue = 529393.9"] ;
300 -> 301 ;
302 [label="mse = 0.0\nsamples = 4\nvalue = 0.0"] ;
301 -> 302 ;
303 [label="original_language <= 3.9\nmse = 4484125998200.2\nsamples = 2\nvalue = 2117575.5"] ;
301 -> 303 ;
304 [label="mse = 0.0\nsamples = 1\nvalue = 4235151.0"] ;
303 -> 304 ;
305 [label="mse = 0.0\nsamples = 1\nvalue = 0.0"] ;
303 -> 305 ;
306 [label="runtime <= -0.1\nmse = 224940252980167.1\nsamples = 18\nvalue = 9437974.9"] ;
300 -> 306 ;
307 [label="original_language <= 3.2\nmse = 628750385830443.5\nsamples = 2\nvalue = 35461257.3"] ;
306 -> 307 ;
308 [label="mse = 0.0\nsamples = 1\nvalue = 53191886.0"] ;
307 -> 308 ;
309 [label="mse = 0.0\nsamples = 1\nvalue = 0.0"] ;
307 -> 309 ;
310 [label="original_language <= 5.9\nmse = 85465847613828.9\nsamples = 16\nvalue = 6315181.0"] ;
306 -> 310 ;
311 [label="runtime <= 0.3\nmse = 32871350160443.4\nsamples = 12\nvalue = 3851042.6"] ;
310 -> 311 ;
312 [label="original_language <= 3.1\nmse = 9384990923086.8\nsamples = 7\nvalue = 1370035.8"] ;
311 -> 312 ;
313 [label="original_language <= 1.8\nmse = 13790190744127.5\nsamples = 4\nvalue = 2348632.9"] ;
312 -> 313 ;
314 [label="mse = 0.0\nsamples = 2\nvalue = 0.0"] ;
313 -> 314 ;
315 [label="runtime <= 0.0\nmse = 15015985476938.9\nsamples = 2\nvalue = 5480143.3"] ;
313 -> 315 ;
316 [label="mse = 0.0\nsamples = 1\nvalue = 0.0"] ;
315 -> 316 ;
317 [label="mse = 0.0\nsamples = 1\nvalue = 8220215.0"] ;
315 -> 317 ;
318 [label="mse = 0.0\nsamples = 3\nvalue = 0.0"] ;
312 -> 318 ;
319 [label="runtime <= 0.5\nmse = 45018159355556.7\nsamples = 5\nvalue = 7572552.8"] ;
311 -> 319 ;
320 [label="mse = 4758746812692.2\nsamples = 2\nvalue = 13930763.8"] ;
319 -> 320 ;
321 [label="original_language <= 1.8\nmse = 4423877657379.2\nsamples = 3\nvalue = 1214341.8"] ;
319 -> 321 ;
322 [label="mse = 5243114260597.6\nsamples = 2\nvalue = 1619122.3"] ;
321 -> 322 ;
323 [label="mse = 0.0\nsamples = 1\nvalue = 0.0"] ;
321 -> 323 ;
324 [label="original_language <= 8.5\nmse = 174404280282901.0\nsamples = 4\nvalue = 16171734.4"] ;
310 -> 324 ;
325 [label="original_language <= 7.1\nmse = 90474355786.9\nsamples = 2\nvalue = 26952890.7"] ;
324 -> 325 ;
326 [label="mse = 0.0\nsamples = 1\nvalue = 26527510.0"] ;
325 -> 326 ;
327 [label="mse = 0.0\nsamples = 1\nvalue = 27165581.0"] ;
325 -> 327 ;
328 [label="mse = 0.0\nsamples = 2\nvalue = 0.0"] ;
324 -> 328 ;
329 [label="runtime <= 0.2\nmse = 1.7610474180982352e+16\nsamples = 33\nvalue = 115091965.5"] ;
231 -> 329 ;
330 [label="runtime <= -0.1\nmse = 1.1443795470768466e+16\nsamples = 21\nvalue = 77869225.4"] ;
329 -> 330 ;
331 [label="runtime <= -0.1\nmse = 3.844970548144611e+16\nsamples = 4\nvalue = 145931587.5"] ;
330 -> 331 ;
332 [label="mse = 17253526911432.2\nsamples = 2\nvalue = 13608968.5"] ;
331 -> 332 ;
333 [label="mse = 4.186360643794248e+16\nsamples = 2\nvalue = 278254206.5"] ;
331 -> 333 ;
334 [label="runtime <= -0.1\nmse = 6829484222217025.0\nsamples = 17\nvalue = 68146030.8"] ;
330 -> 334 ;
335 [label="mse = 2941635891351226.0\nsamples = 4\nvalue = 90443034.9"] ;
334 -> 335 ;
336 [label="runtime <= 0.0\nmse = 8106215975403074.0\nsamples = 13\nvalue = 59227229.2"] ;
334 -> 336 ;
337 [label="runtime <= -0.0\nmse = 944812384920539.8\nsamples = 8\nvalue = 42833351.9"] ;
336 -> 337 ;
338 [label="mse = 0.0\nsamples = 1\nvalue = 32017803.0"] ;
337 -> 338 ;
339 [label="mse = 1091461094896222.4\nsamples = 7\nvalue = 44799815.4"] ;
337 -> 339 ;
340 [label="runtime <= 0.1\nmse = 1.997989622021409e+16\nsamples = 5\nvalue = 89673001.1"] ;
336 -> 340 ;
341 [label="mse = 2.2548748628792772e+16\nsamples = 4\nvalue = 100100508.0"] ;
340 -> 341 ;
342 [label="mse = 0.0\nsamples = 1\nvalue = 27107960.0"] ;
340 -> 342 ;
343 [label="runtime <= 0.4\nmse = 2.163063732554153e+16\nsamples = 12\nvalue = 189537445.6"] ;
329 -> 343 ;
344 [label="runtime <= 0.4\nmse = 2.183969259201187e+16\nsamples = 6\nvalue = 272187370.4"] ;
343 -> 344 ;
345 [label="runtime <= 0.3\nmse = 1.5086962890633168e+16\nsamples = 5\nvalue = 239727666.8"] ;
344 -> 345 ;
346 [label="runtime <= 0.2\nmse = 6640574195657216.0\nsamples = 3\nvalue = 289521577.6"] ;
345 -> 346 ;
347 [label="mse = 0.0\nsamples = 1\nvalue = 190213455.0"] ;
346 -> 347 ;
348 [label="mse = 109731199054656.0\nsamples = 2\nvalue = 355726992.7"] ;
346 -> 348 ;
349 [label="mse = 1.814457268120308e+16\nsamples = 2\nvalue = 156737815.3"] ;
345 -> 349 ;
350 [label="mse = -64.0\nsamples = 1\nvalue = 531865000.0"] ;
344 -> 350 ;
351 [label="runtime <= 0.5\nmse = 1287046871446711.0\nsamples = 6\nvalue = 83273256.6"] ;
343 -> 351 ;
352 [label="runtime <= 0.5\nmse = 1525073579200256.0\nsamples = 3\nvalue = 66100805.0"] ;
351 -> 352 ;
353 [label="mse = 1145359453312331.0\nsamples = 2\nvalue = 81001073.3"] ;
352 -> 353 ;
354 [label="mse = 0.0\nsamples = 1\nvalue = 21400000.0"] ;
352 -> 354 ;
355 [label="runtime <= 0.6\nmse = 52232749636898.0\nsamples = 3\nvalue = 106169858.7"] ;
351 -> 355 ;
356 [label="mse = 75998624562960.0\nsamples = 2\nvalue = 107055014.0"] ;
355 -> 356 ;
357 [label="mse = 0.0\nsamples = 1\nvalue = 104399548.0"] ;
355 -> 357 ;
358 [label="genre_Family <= 1.5\nmse = 1.7789097003191388e+16\nsamples = 24\nvalue = 130096998.2"] ;
230 -> 358 ;
359 [label="runtime <= -0.0\nmse = 7299804981599085.0\nsamples = 18\nvalue = 85326293.0"] ;
358 -> 359 ;
360 [label="runtime <= -0.1\nmse = 6593715076467858.0\nsamples = 5\nvalue = 132019343.7"] ;
359 -> 360 ;
361 [label="genre_Science_Fiction <= 1.4\nmse = 1704085342837920.0\nsamples = 3\nvalue = 74780080.8"] ;
360 -> 361 ;
362 [label="runtime <= -0.1\nmse = 223527122714710.0\nsamples = 2\nvalue = 42428171.3"] ;
361 -> 362 ;
363 [label="mse = 0.0\nsamples = 1\nvalue = 53000000.0"] ;
362 -> 363 ;
364 [label="mse = 0.0\nsamples = 1\nvalue = 21284514.0"] ;
362 -> 364 ;
365 [label="mse = -2.0\nsamples = 1\nvalue = 123307945.0"] ;
361 -> 365 ;
366 [label="mse = 3491065080482072.0\nsamples = 2\nvalue = 203568422.2"] ;
360 -> 366 ;
367 [label="genre_Science_Fiction <= 1.4\nmse = 6267573522365872.0\nsamples = 13\nvalue = 65314985.5"] ;
359 -> 367 ;
368 [label="runtime <= 0.4\nmse = 5899257953218660.0\nsamples = 12\nvalue = 59617474.6"] ;
367 -> 368 ;
369 [label="runtime <= 0.1\nmse = 3436430545595386.0\nsamples = 10\nvalue = 46125659.3"] ;
368 -> 369 ;
370 [label="mse = 0.0\nsamples = 1\nvalue = 14110013.0"] ;
369 -> 370 ;
371 [label="runtime <= 0.3\nmse = 3783159219448923.0\nsamples = 9\nvalue = 51051143.4"] ;
369 -> 371 ;
372 [label="runtime <= 0.2\nmse = 5112841757342824.0\nsamples = 7\nvalue = 61176077.4"] ;
371 -> 372 ;
373 [label="mse = 1249417696248962.0\nsamples = 3\nvalue = 43182260.0"] ;
372 -> 373 ;
374 [label="runtime <= 0.2\nmse = 6801720688221758.0\nsamples = 4\nvalue = 70172986.2"] ;
372 -> 374 ;
375 [label="mse = 0.0\nsamples = 1\nvalue = 65663276.0"] ;
374 -> 375 ;
376 [label="mse = 8157183829277149.0\nsamples = 3\nvalue = 71074928.2"] ;
374 -> 376 ;
377 [label="original_language <= 3.1\nmse = 41737765640225.0\nsamples = 2\nvalue = 28270041.8"] ;
371 -> 377 ;
378 [label="mse = 0.0\nsamples = 1\nvalue = 17080167.0"] ;
377 -> 378 ;
379 [label="mse = 0.0\nsamples = 1\nvalue = 32000000.0"] ;
377 -> 379 ;
380 [label="runtime <= 0.5\nmse = 1.1103391225810166e+16\nsamples = 2\nvalue = 100092920.4"] ;
368 -> 380 ;
381 [label="mse = 0.0\nsamples = 1\nvalue = 229147509.0"] ;
380 -> 381 ;
382 [label="mse = 0.0\nsamples = 1\nvalue = 14056528.0"] ;
380 -> 382 ;
383 [label="mse = 48.0\nsamples = 1\nvalue = 179265204.0"] ;
367 -> 383 ;
384 [label="runtime <= 0.0\nmse = 2.380072756578213e+16\nsamples = 6\nvalue = 279332682.1"] ;
358 -> 384 ;
385 [label="runtime <= -0.1\nmse = 1.7037553857049376e+16\nsamples = 5\nvalue = 312226897.5"] ;
384 -> 385 ;
386 [label="mse = 1.385887905820448e+16\nsamples = 3\nvalue = 233209467.8"] ;
385 -> 386 ;
387 [label="runtime <= -0.1\nmse = 7728720247301888.0\nsamples = 2\nvalue = 391244327.2"] ;
385 -> 387 ;
388 [label="mse = 0.0\nsamples = 1\nvalue = 543514353.0"] ;
387 -> 388 ;
389 [label="mse = -16.0\nsamples = 1\nvalue = 340487652.0"] ;
387 -> 389 ;
390 [label="mse = 31.0\nsamples = 1\nvalue = 16178959.0"] ;
384 -> 390 ;
391 [label="genre_Fantasy <= 1.6\nmse = 1.4881127926187876e+16\nsamples = 334\nvalue = 98763396.8"] ;
3 -> 391 ;
392 [label="original_language <= 0.0\nmse = 1.246285005053566e+16\nsamples = 319\nvalue = 92803917.1"] ;
391 -> 392 ;
393 [label="genre_Science_Fiction <= 1.4\nmse = 1.3039183625637414e+16\nsamples = 291\nvalue = 100501742.9"] ;
392 -> 393 ;
394 [label="runtime <= 1.0\nmse = 1.2159448831574668e+16\nsamples = 280\nvalue = 96919874.9"] ;
393 -> 394 ;
395 [label="runtime <= 0.7\nmse = 1.0957196532148986e+16\nsamples = 109\nvalue = 78424487.3"] ;
394 -> 395 ;
396 [label="original_language <= -0.5\nmse = 2943787240042291.0\nsamples = 24\nvalue = 52743192.9"] ;
395 -> 396 ;
397 [label="mse = 0.0\nsamples = 1\nvalue = 79384880.0"] ;
396 -> 397 ;
398 [label="mse = 3000602836785876.5\nsamples = 23\nvalue = 52060072.7"] ;
396 -> 398 ;
399 [label="runtime <= 0.9\nmse = 1.3225293725670738e+16\nsamples = 85\nvalue = 86577279.2"] ;
395 -> 399 ;
400 [label="runtime <= 0.7\nmse = 1.3915421639527516e+16\nsamples = 70\nvalue = 92728701.6"] ;
399 -> 400 ;
401 [label="mse = 1.4671963972782906e+16\nsamples = 16\nvalue = 105959393.2"] ;
400 -> 401 ;
402 [label="runtime <= 0.8\nmse = 1.365619467241576e+16\nsamples = 54\nvalue = 89221771.3"] ;
400 -> 402 ;
403 [label="runtime <= 0.8\nmse = 7759387024858504.0\nsamples = 38\nvalue = 85219739.1"] ;
402 -> 403 ;
404 [label="mse = 5380000680039167.0\nsamples = 19\nvalue = 81884183.8"] ;
403 -> 404 ;
405 [label="mse = 1.0284036786445762e+16\nsamples = 19\nvalue = 88793548.3"] ;
403 -> 405 ;
406 [label="mse = 2.7213424760321316e+16\nsamples = 16\nvalue = 98506486.0"] ;
402 -> 406 ;
407 [label="runtime <= 0.9\nmse = 8639454237120398.0\nsamples = 15\nvalue = 55820167.3"] ;
399 -> 407 ;
408 [label="mse = 5460677817876907.0\nsamples = 6\nvalue = 47193314.6"] ;
407 -> 408 ;
409 [label="genre_Family <= 1.5\nmse = 1.0521642124776728e+16\nsamples = 9\nvalue = 61128999.7"] ;
407 -> 409 ;
410 [label="mse = 1.23896892015655e+16\nsamples = 8\nvalue = 58498446.5"] ;
409 -> 410 ;
411 [label="mse = -4.0\nsamples = 1\nvalue = 75597042.0"] ;
409 -> 411 ;
412 [label="runtime <= 4.0\nmse = 1.254821402015297e+16\nsamples = 171\nvalue = 107845975.7"] ;
394 -> 412 ;
413 [label="runtime <= 1.8\nmse = 1.2734084763235364e+16\nsamples = 161\nvalue = 112229898.7"] ;
412 -> 413 ;
414 [label="runtime <= 1.8\nmse = 1.271180964815419e+16\nsamples = 115\nvalue = 104863057.0"] ;
413 -> 414 ;
415 [label="runtime <= 1.7\nmse = 1.2889030689467408e+16\nsamples = 110\nvalue = 107421920.9"] ;
414 -> 415 ;
416 [label="runtime <= 1.5\nmse = 1.2909485904060638e+16\nsamples = 104\nvalue = 105217042.5"] ;
415 -> 416 ;
417 [label="runtime <= 1.5\nmse = 1.2809228547651698e+16\nsamples = 88\nvalue = 111572570.4"] ;
416 -> 417 ;
418 [label="runtime <= 1.1\nmse = 1.2652536599262104e+16\nsamples = 84\nvalue = 106457018.3"] ;
417 -> 418 ;
419 [label="runtime <= 1.0\nmse = 1.2685186906678512e+16\nsamples = 29\nvalue = 124865628.8"] ;
418 -> 419 ;
420 [label="mse = 1.5184714996106612e+16\nsamples = 18\nvalue = 119567955.9"] ;
419 -> 420 ;
421 [label="mse = 9792043166715282.0\nsamples = 11\nvalue = 130854302.5"] ;
419 -> 421 ;
422 [label="runtime <= 1.1\nmse = 1.2378382860319148e+16\nsamples = 55\nvalue = 97157823.4"] ;
418 -> 422 ;
423 [label="original_language <= -0.6\nmse = 4676216507174547.0\nsamples = 10\nvalue = 49062792.9"] ;
422 -> 423 ;
424 [label="mse = 0.0\nsamples = 1\nvalue = 0.0"] ;
423 -> 424 ;
425 [label="mse = 4816788619585640.0\nsamples = 9\nvalue = 52333645.7"] ;
423 -> 425 ;
426 [label="runtime <= 1.4\nmse = 1.33526286753873e+16\nsamples = 45\nvalue = 106658076.3"] ;
422 -> 426 ;
427 [label="runtime <= 1.3\nmse = 1.5145984700132852e+16\nsamples = 37\nvalue = 102298479.3"] ;
426 -> 427 ;
428 [label="runtime <= 1.2\nmse = 2.3886668304592776e+16\nsamples = 22\nvalue = 117885690.3"] ;
427 -> 428 ;
429 [label="runtime <= 1.2\nmse = 1.1194770460888016e+16\nsamples = 14\nvalue = 101392213.3"] ;
428 -> 429 ;
430 [label="mse = 7033134663184855.0\nsamples = 6\nvalue = 82953021.0"] ;
429 -> 430 ;
431 [label="mse = 1.3308360043135672e+16\nsamples = 8\nvalue = 112148408.8"] ;
429 -> 431 ;
432 [label="mse = 3.74278835681669e+16\nsamples = 8\nvalue = 136319576.4"] ;
428 -> 432 ;
433 [label="runtime <= 1.3\nmse = 5056501123332414.0\nsamples = 15\nvalue = 85294249.0"] ;
427 -> 433 ;
434 [label="mse = 2940747959155207.0\nsamples = 8\nvalue = 81460690.8"] ;
433 -> 434 ;
435 [label="mse = 7880867674839741.0\nsamples = 7\nvalue = 90496935.1"] ;
433 -> 435 ;
436 [label="runtime <= 1.4\nmse = 2303157804691628.0\nsamples = 8\nvalue = 131725759.3"] ;
426 -> 436 ;
437 [label="mse = 1627234117484464.0\nsamples = 4\nvalue = 152995253.8"] ;
436 -> 437 ;
438 [label="genre_Family <= 1.5\nmse = 2232011791634408.0\nsamples = 4\nvalue = 116533263.3"] ;
436 -> 438 ;
439 [label="mse = 3065828813904648.0\nsamples = 3\nvalue = 120638580.2"] ;
438 -> 439 ;
440 [label="mse = 0.0\nsamples = 1\nvalue = 106269971.0"] ;
438 -> 440 ;
441 [label="mse = 6475404500094232.0\nsamples = 4\nvalue = 204931395.2"] ;
417 -> 441 ;
442 [label="runtime <= 1.7\nmse = 1.2088322179167308e+16\nsamples = 16\nvalue = 71466997.9"] ;
416 -> 442 ;
443 [label="runtime <= 1.6\nmse = 1.2825798309285876e+16\nsamples = 14\nvalue = 79713190.0"] ;
442 -> 443 ;
444 [label="runtime <= 1.6\nmse = 1.0232024033131034e+16\nsamples = 11\nvalue = 59459580.7"] ;
443 -> 444 ;
445 [label="mse = 9490803365151188.0\nsamples = 6\nvalue = 70769567.7"] ;
444 -> 445 ;
446 [label="mse = 1.0751881253020276e+16\nsamples = 5\nvalue = 47018594.9"] ;
444 -> 446 ;
447 [label="mse = 1.4760692457100256e+16\nsamples = 3\nvalue = 164778349.2"] ;
443 -> 447 ;
448 [label="mse = 21.3\nsamples = 2\nvalue = 0.0"] ;
442 -> 448 ;
449 [label="runtime <= 1.8\nmse = 8904600209357072.0\nsamples = 6\nvalue = 165063741.9"] ;
415 -> 449 ;
450 [label="mse = 7921282523423872.0\nsamples = 3\nvalue = 225522407.3"] ;
449 -> 450 ;
451 [label="mse = 4844572545407070.0\nsamples = 3\nvalue = 119719742.8"] ;
449 -> 451 ;
452 [label="mse = 326490855305093.1\nsamples = 5\nvalue = 23832367.5"] ;
414 -> 452 ;
453 [label="runtime <= 3.0\nmse = 1.2244816469632638e+16\nsamples = 46\nvalue = 132284078.8"] ;
413 -> 453 ;
454 [label="runtime <= 2.9\nmse = 1.179804274733018e+16\nsamples = 36\nvalue = 143153411.9"] ;
453 -> 454 ;
455 [label="runtime <= 1.9\nmse = 9923764946171332.0\nsamples = 35\nvalue = 137105420.9"] ;
454 -> 455 ;
456 [label="mse = 6712488241000432.0\nsamples = 5\nvalue = 192029706.8"] ;
455 -> 456 ;
457 [label="runtime <= 2.4\nmse = 9872401613014018.0\nsamples = 30\nvalue = 127951373.3"] ;
455 -> 457 ;
458 [label="runtime <= 2.3\nmse = 6633416627431096.0\nsamples = 14\nvalue = 99968197.2"] ;
457 -> 458 ;
459 [label="runtime <= 2.2\nmse = 7110189567865120.0\nsamples = 13\nvalue = 109445964.4"] ;
458 -> 459 ;
460 [label="original_language <= -0.5\nmse = 6749538259709318.0\nsamples = 10\nvalue = 88959204.2"] ;
459 -> 460 ;
461 [label="mse = 0.0\nsamples = 1\nvalue = 0.0"] ;
460 -> 461 ;
462 [label="runtime <= 2.1\nmse = 6597564918672372.0\nsamples = 9\nvalue = 96372471.2"] ;
460 -> 462 ;
463 [label="runtime <= 2.0\nmse = 8951434935376957.0\nsamples = 5\nvalue = 116499968.0"] ;
462 -> 463 ;
464 [label="mse = 6584654076638436.0\nsamples = 2\nvalue = 66966935.5"] ;
463 -> 464 ;
465 [label="runtime <= 2.0\nmse = 4473965342351692.0\nsamples = 3\nvalue = 182544011.3"] ;
463 -> 465 ;
466 [label="mse = 3783937932779560.0\nsamples = 2\nvalue = 213779728.5"] ;
465 -> 466 ;
467 [label="mse = 0.0\nsamples = 1\nvalue = 120072577.0"] ;
465 -> 467 ;
468 [label="runtime <= 2.2\nmse = 1940956713870506.0\nsamples = 4\nvalue = 68193975.8"] ;
462 -> 468 ;
469 [label="mse = 2732416756305749.0\nsamples = 3\nvalue = 54016372.3"] ;
468 -> 469 ;
470 [label="mse = -1.0\nsamples = 1\nvalue = 89460381.0"] ;
468 -> 470 ;
471 [label="mse = 4119422250043864.0\nsamples = 3\nvalue = 162711540.8"] ;
459 -> 471 ;
472 [label="mse = 6.8\nsamples = 1\nvalue = 43101594.0"] ;
458 -> 472 ;
473 [label="runtime <= 2.5\nmse = 1.1308865094677788e+16\nsamples = 16\nvalue = 149716065.8"] ;
457 -> 473 ;
474 [label="runtime <= 2.4\nmse = 1.488038874278791e+16\nsamples = 8\nvalue = 168953967.0"] ;
473 -> 474 ;
475 [label="mse = 2.0172898181617628e+16\nsamples = 5\nvalue = 159715729.6"] ;
474 -> 475 ;
476 [label="runtime <= 2.5\nmse = 3783299683575912.0\nsamples = 3\nvalue = 187430441.8"] ;
474 -> 476 ;
477 [label="mse = 4528475613978928.0\nsamples = 2\nvalue = 193765250.2"] ;
476 -> 477 ;
478 [label="mse = 0.0\nsamples = 1\nvalue = 162091208.0"] ;
476 -> 478 ;
479 [label="runtime <= 2.8\nmse = 5803563162376458.0\nsamples = 8\nvalue = 125668689.2"] ;
473 -> 479 ;
480 [label="runtime <= 2.7\nmse = 5783291455342758.0\nsamples = 6\nvalue = 87165033.7"] ;
479 -> 480 ;
481 [label="runtime <= 2.6\nmse = 7907353124645726.0\nsamples = 3\nvalue = 127818093.3"] ;
480 -> 481 ;
482 [label="mse = 0.0\nsamples = 1\nvalue = 14711793.0"] ;
481 -> 482 ;
483 [label="mse = 2266253305647940.0\nsamples = 2\nvalue = 184371243.5"] ;
481 -> 483 ;
484 [label="runtime <= 2.7\nmse = 2021114179353867.2\nsamples = 3\nvalue = 56675239.0"] ;
480 -> 484 ;
485 [label="mse = 0.0\nsamples = 1\nvalue = 43984230.0"] ;
484 -> 485 ;
486 [label="mse = 3720104939831568.0\nsamples = 2\nvalue = 69366248.0"] ;
484 -> 486 ;
487 [label="runtime <= 2.8\nmse = 850637747124152.0\nsamples = 2\nvalue = 179573807.0"] ;
479 -> 487 ;
488 [label="mse = 0.0\nsamples = 1\nvalue = 215294342.0"] ;
487 -> 488 ;
489 [label="mse = 8.0\nsamples = 1\nvalue = 155760117.0"] ;
487 -> 489 ;
490 [label="mse = 96.0\nsamples = 1\nvalue = 481840909.0"] ;
454 -> 490 ;
491 [label="runtime <= 3.4\nmse = 1.1787639169543588e+16\nsamples = 10\nvalue = 90980612.7"] ;
453 -> 491 ;
492 [label="runtime <= 3.3\nmse = 6336477236803403.0\nsamples = 5\nvalue = 50159704.1"] ;
491 -> 492 ;
493 [label="runtime <= 3.1\nmse = 7723007497694205.0\nsamples = 4\nvalue = 80255526.6"] ;
492 -> 493 ;
494 [label="mse = 0.0\nsamples = 1\nvalue = 7830611.0"] ;
493 -> 494 ;
495 [label="runtime <= 3.2\nmse = 7043492052082426.0\nsamples = 3\nvalue = 128538803.7"] ;
493 -> 495 ;
496 [label="mse = 0.0\nsamples = 1\nvalue = 89800000.0"] ;
495 -> 496 ;
497 [label="mse = 9439716895980228.0\nsamples = 2\nvalue = 147908205.5"] ;
495 -> 497 ;
498 [label="mse = 0.0\nsamples = 1\nvalue = 0.0"] ;
492 -> 498 ;
499 [label="runtime <= 3.8\nmse = 1.3936689768184368e+16\nsamples = 5\nvalue = 137633079.6"] ;
491 -> 499 ;
500 [label="runtime <= 3.6\nmse = 1.5366368482392838e+16\nsamples = 4\nvalue = 126337676.5"] ;
499 -> 500 ;
501 [label="runtime <= 3.5\nmse = 2.702899914280756e+16\nsamples = 3\nvalue = 169371023.0"] ;
500 -> 501 ;
502 [label="mse = 0.0\nsamples = 1\nvalue = 116112375.0"] ;
501 -> 502 ;
503 [label="mse = 3.8416136024120424e+16\nsamples = 2\nvalue = 196000347.0"] ;
501 -> 503 ;
504 [label="mse = -4.0\nsamples = 1\nvalue = 83304330.0"] ;
500 -> 504 ;
505 [label="mse = 0.0\nsamples = 1\nvalue = 205405498.0"] ;
499 -> 505 ;
506 [label="runtime <= 7.7\nmse = 152346412817807.0\nsamples = 10\nvalue = 17469716.7"] ;
412 -> 506 ;
507 [label="runtime <= 5.6\nmse = 137489981823259.6\nsamples = 9\nvalue = 18925526.4"] ;
506 -> 507 ;
508 [label="runtime <= 4.3\nmse = 144203535195035.4\nsamples = 7\nvalue = 14700150.9"] ;
507 -> 508 ;
509 [label="runtime <= 4.2\nmse = 119966817130200.2\nsamples = 3\nvalue = 23199547.2"] ;
508 -> 509 ;
510 [label="runtime <= 4.1\nmse = 28729387545605.6\nsamples = 2\nvalue = 17471843.3"] ;
509 -> 510 ;
511 [label="mse = 0.0\nsamples = 1\nvalue = 25052000.0"] ;
510 -> 511 ;
512 [label="mse = 0.0\nsamples = 1\nvalue = 13681765.0"] ;
510 -> 512 ;
513 [label="mse = 0.0\nsamples = 1\nvalue = 40382659.0"] ;
509 -> 513 ;
514 [label="runtime <= 4.8\nmse = 23960775781144.2\nsamples = 4\nvalue = 6200754.5"] ;
508 -> 514 ;
515 [label="runtime <= 4.4\nmse = 17617961088000.2\nsamples = 2\nvalue = 4197375.5"] ;
514 -> 515 ;
516 [label="mse = 0.0\nsamples = 1\nvalue = 8394751.0"] ;
515 -> 516 ;
517 [label="mse = 0.0\nsamples = 1\nvalue = 0.0"] ;
515 -> 517 ;
518 [label="runtime <= 5.3\nmse = 22276535639006.2\nsamples = 2\nvalue = 8204133.5"] ;
514 -> 518 ;
519 [label="mse = 0.0\nsamples = 1\nvalue = 12923936.0"] ;
518 -> 519 ;
520 [label="mse = 0.0\nsamples = 1\nvalue = 3484331.0"] ;
518 -> 520 ;
521 [label="runtime <= 6.4\nmse = 16940084271018.8\nsamples = 2\nvalue = 27376277.5"] ;
507 -> 521 ;
522 [label="mse = 0.0\nsamples = 1\nvalue = 34505110.0"] ;
521 -> 522 ;
523 [label="mse = 0.0\nsamples = 1\nvalue = 25000000.0"] ;
521 -> 523 ;
524 [label="mse = 0.0\nsamples = 1\nvalue = 0.0"] ;
506 -> 524 ;
525 [label="runtime <= 1.1\nmse = 2.665527173901063e+16\nsamples = 11\nvalue = 189451465.2"] ;
393 -> 525 ;
526 [label="runtime <= 1.0\nmse = 7.45093025792489e+16\nsamples = 3\nvalue = 329201525.0"] ;
525 -> 526 ;
527 [label="runtime <= 0.9\nmse = 2639858723377580.0\nsamples = 2\nvalue = 138480004.5"] ;
526 -> 527 ;
528 [label="mse = 0.0\nsamples = 1\nvalue = 87100449.0"] ;
527 -> 528 ;
529 [label="mse = 0.0\nsamples = 1\nvalue = 189859560.0"] ;
527 -> 529 ;
530 [label="mse = 0.0\nsamples = 1\nvalue = 710644566.0"] ;
526 -> 530 ;
531 [label="runtime <= 1.3\nmse = 1.239724656106872e+16\nsamples = 8\nvalue = 161501453.3"] ;
525 -> 531 ;
532 [label="runtime <= 1.2\nmse = 116302465104.2\nsamples = 2\nvalue = 12617708.7"] ;
531 -> 532 ;
533 [label="mse = 0.0\nsamples = 1\nvalue = 12376563.0"] ;
532 -> 533 ;
534 [label="mse = 0.0\nsamples = 1\nvalue = 13100000.0"] ;
532 -> 534 ;
535 [label="runtime <= 1.7\nmse = 8569538686307744.0\nsamples = 6\nvalue = 198722389.4"] ;
531 -> 535 ;
536 [label="runtime <= 1.4\nmse = 6378318234411872.0\nsamples = 2\nvalue = 383653009.0"] ;
535 -> 536 ;
537 [label="mse = 0.0\nsamples = 1\nvalue = 303788635.0"] ;
536 -> 537 ;
538 [label="mse = -32.0\nsamples = 1\nvalue = 463517383.0"] ;
536 -> 538 ;
539 [label="runtime <= 2.9\nmse = 799942602412784.0\nsamples = 4\nvalue = 161736265.5"] ;
535 -> 539 ;
540 [label="runtime <= 2.4\nmse = 48955478432256.0\nsamples = 2\nvalue = 179199559.9"] ;
539 -> 540 ;
541 [label="mse = 0.0\nsamples = 1\nvalue = 171120329.0"] ;
540 -> 541 ;
542 [label="mse = 4.0\nsamples = 1\nvalue = 185258983.0"] ;
540 -> 542 ;
543 [label="runtime <= 3.1\nmse = 180283059890082.0\nsamples = 2\nvalue = 120988578.7"] ;
539 -> 543 ;
544 [label="mse = 0.0\nsamples = 1\nvalue = 102000000.0"] ;
543 -> 544 ;
545 [label="mse = 0.0\nsamples = 1\nvalue = 130482868.0"] ;
543 -> 545 ;
546 [label="runtime <= 1.8\nmse = 1094811015388580.8\nsamples = 28\nvalue = 19753121.6"] ;
392 -> 546 ;
547 [label="genre_Science_Fiction <= 1.4\nmse = 476755391235995.3\nsamples = 19\nvalue = 8260966.1"] ;
546 -> 547 ;
548 [label="original_language <= 1.6\nmse = 39233262363628.4\nsamples = 18\nvalue = 2653969.9"] ;
547 -> 548 ;
549 [label="original_language <= 1.1\nmse = 88667081525825.8\nsamples = 5\nvalue = 6433452.6"] ;
548 -> 549 ;
550 [label="original_language <= 0.6\nmse = 7831167746846.9\nsamples = 4\nvalue = 3237634.1"] ;
549 -> 550 ;
551 [label="mse = 0.0\nsamples = 2\nvalue = 0.0"] ;
550 -> 551 ;
552 [label="runtime <= 0.9\nmse = 2466884656685.0\nsamples = 2\nvalue = 5180214.6"] ;
550 -> 552 ;
553 [label="mse = 0.0\nsamples = 1\nvalue = 3897799.0"] ;
552 -> 553 ;
554 [label="mse = 0.0\nsamples = 1\nvalue = 7103838.0"] ;
552 -> 554 ;
555 [label="mse = 0.0\nsamples = 1\nvalue = 32000000.0"] ;
549 -> 555 ;
556 [label="runtime <= 1.6\nmse = 5845798966094.3\nsamples = 13\nvalue = 863688.7"] ;
548 -> 556 ;
557 [label="original_language <= 8.8\nmse = 2865445237654.3\nsamples = 12\nvalue = 446611.1"] ;
556 -> 557 ;
558 [label="original_language <= 7.7\nmse = 23925058593.8\nsamples = 10\nvalue = 39937.5"] ;
557 -> 558 ;
559 [label="mse = 0.0\nsamples = 9\nvalue = 0.0"] ;
558 -> 559 ;
560 [label="mse = 0.0\nsamples = 1\nvalue = 639000.0"] ;
558 -> 560 ;
561 [label="runtime <= 1.0\nmse = 13690000000000.0\nsamples = 2\nvalue = 3700000.0"] ;
557 -> 561 ;
562 [label="mse = 0.0\nsamples = 1\nvalue = 7400000.0"] ;
561 -> 562 ;
563 [label="mse = 0.0\nsamples = 1\nvalue = 0.0"] ;
561 -> 563 ;
564 [label="mse = 0.0\nsamples = 1\nvalue = 8371085.0"] ;
556 -> 564 ;
565 [label="mse = 0.0\nsamples = 1\nvalue = 86758912.0"] ;
547 -> 565 ;
566 [label="runtime <= 2.8\nmse = 1532897825312151.5\nsamples = 9\nvalue = 37898630.2"] ;
546 -> 566 ;
567 [label="original_language <= 7.4\nmse = 1357393397942338.0\nsamples = 6\nvalue = 60118484.9"] ;
566 -> 567 ;
568 [label="runtime <= 2.3\nmse = 277339900251219.4\nsamples = 4\nvalue = 28446744.3"] ;
567 -> 568 ;
569 [label="original_language <= 0.5\nmse = 138595737141615.0\nsamples = 3\nvalue = 34136093.2"] ;
568 -> 569 ;
570 [label="runtime <= 1.9\nmse = 740813887161.0\nsamples = 2\nvalue = 24539175.3"] ;
569 -> 570 ;
571 [label="mse = 0.0\nsamples = 1\nvalue = 23321954.0"] ;
570 -> 571 ;
572 [label="mse = 0.0\nsamples = 1\nvalue = 25147786.0"] ;
570 -> 572 ;
573 [label="mse = 0.0\nsamples = 1\nvalue = 48531470.0"] ;
569 -> 573 ;
574 [label="mse = 0.0\nsamples = 1\nvalue = 0.0"] ;
568 -> 574 ;
575 [label="runtime <= 2.2\nmse = 5275836272728.0\nsamples = 2\nvalue = 98124573.6"] ;
567 -> 575 ;
576 [label="mse = 0.0\nsamples = 1\nvalue = 95311434.0"] ;
575 -> 576 ;
577 [label="mse = 0.0\nsamples = 1\nvalue = 100000000.0"] ;
575 -> 577 ;
578 [label="runtime <= 3.9\nmse = 161905693406700.0\nsamples = 3\nvalue = 7346330.0"] ;
566 -> 578 ;
579 [label="mse = 0.0\nsamples = 2\nvalue = 0.0"] ;
578 -> 579 ;
580 [label="mse = 0.0\nsamples = 1\nvalue = 29385320.0"] ;
578 -> 580 ;
581 [label="runtime <= 0.7\nmse = 5.039339982494058e+16\nsamples = 15\nvalue = 231944812.7"] ;
391 -> 581 ;
582 [label="mse = 6.864529833172759e+16\nsamples = 3\nvalue = 505692886.6"] ;
581 -> 582 ;
583 [label="runtime <= 1.0\nmse = 1.8725061000858964e+16\nsamples = 12\nvalue = 155903681.1"] ;
581 -> 583 ;
584 [label="runtime <= 0.9\nmse = 2.4788282880740296e+16\nsamples = 6\nvalue = 210285370.1"] ;
583 -> 584 ;
585 [label="runtime <= 0.9\nmse = 1.5672592965287468e+16\nsamples = 5\nvalue = 173446041.4"] ;
584 -> 585 ;
586 [label="runtime <= 0.8\nmse = 823259719706696.0\nsamples = 2\nvalue = 192613708.7"] ;
585 -> 586 ;
587 [label="mse = 0.0\nsamples = 1\nvalue = 152036382.0"] ;
586 -> 587 ;
588 [label="mse = 0.0\nsamples = 1\nvalue = 212902372.0"] ;
586 -> 588 ;
589 [label="mse = 2.422948942200807e+16\nsamples = 3\nvalue = 161945441.0"] ;
585 -> 589 ;
590 [label="mse = 0.0\nsamples = 1\nvalue = 505000000.0"] ;
584 -> 590 ;
591 [label="runtime <= 3.7\nmse = 6747102923992226.0\nsamples = 6\nvalue = 101521992.1"] ;
583 -> 591 ;
592 [label="runtime <= 3.0\nmse = 2877084340224425.0\nsamples = 5\nvalue = 78637241.1"] ;
591 -> 592 ;
593 [label="original_language <= 4.5\nmse = 1998397938300048.5\nsamples = 4\nvalue = 57202954.8"] ;
592 -> 593 ;
594 [label="runtime <= 2.0\nmse = 1918489761423396.8\nsamples = 3\nvalue = 76168776.2"] ;
593 -> 594 ;
595 [label="runtime <= 1.2\nmse = 30274828412978.0\nsamples = 2\nvalue = 101306952.0"] ;
594 -> 595 ;
596 [label="mse = 0.0\nsamples = 1\nvalue = 105197635.0"] ;
595 -> 596 ;
597 [label="mse = 0.0\nsamples = 1\nvalue = 93525586.0"] ;
595 -> 597 ;
598 [label="mse = -1.0\nsamples = 1\nvalue = 754249.0"] ;
594 -> 598 ;
599 [label="mse = 0.0\nsamples = 1\nvalue = 19271312.0"] ;
593 -> 599 ;
600 [label="mse = 0.0\nsamples = 1\nvalue = 142940100.0"] ;
592 -> 600 ;
601 [label="mse = 0.0\nsamples = 1\nvalue = 284600000.0"] ;
591 -> 601 ;
602 [label="mse = -12800.0\nsamples = 1\nvalue = 1845034188.0"] ;
2 -> 602 ;
603 [label="runtime <= -1.0\nmse = 8.04696703315823e+16\nsamples = 43\nvalue = 306791918.7"] ;
1 -> 603 ;
604 [label="runtime <= -1.1\nmse = 1.1825581319446332e+16\nsamples = 12\nvalue = 122062516.7"] ;
603 -> 604 ;
605 [label="runtime <= -1.2\nmse = 1.1147294712181212e+16\nsamples = 10\nvalue = 146572771.1"] ;
604 -> 605 ;
606 [label="runtime <= -1.5\nmse = 1.0447857625352466e+16\nsamples = 8\nvalue = 110679712.1"] ;
605 -> 606 ;
607 [label="genre_Fantasy <= 1.6\nmse = 207601537659215.0\nsamples = 3\nvalue = 18704138.3"] ;
606 -> 607 ;
608 [label="runtime <= -1.9\nmse = 29666339362442.2\nsamples = 2\nvalue = 9013318.5"] ;
607 -> 608 ;
609 [label="mse = 0.0\nsamples = 1\nvalue = 14460000.0"] ;
608 -> 609 ;
610 [label="mse = 0.0\nsamples = 1\nvalue = 3566637.0"] ;
608 -> 610 ;
611 [label="mse = 0.0\nsamples = 1\nvalue = 38085778.0"] ;
607 -> 611 ;
612 [label="runtime <= -1.3\nmse = 1.0220727047130056e+16\nsamples = 5\nvalue = 138272384.2"] ;
606 -> 612 ;
613 [label="mse = 0.0\nsamples = 1\nvalue = 200804534.0"] ;
612 -> 613 ;
614 [label="genre_Family <= 1.5\nmse = 1.2689800902317162e+16\nsamples = 4\nvalue = 96584284.3"] ;
612 -> 614 ;
615 [label="mse = 0.0\nsamples = 1\nvalue = 246574.0"] ;
614 -> 615 ;
616 [label="runtime <= -1.2\nmse = 1.3000332019035978e+16\nsamples = 3\nvalue = 115851826.4"] ;
614 -> 616 ;
617 [label="mse = 0.5\nsamples = 1\nvalue = 63800345.0"] ;
616 -> 617 ;
618 [label="genre_Science_Fiction <= 1.4\nmse = 2.234074236283541e+16\nsamples = 2\nvalue = 193929048.5"] ;
616 -> 618 ;
619 [label="mse = 0.0\nsamples = 1\nvalue = 343397247.0"] ;
618 -> 619 ;
620 [label="mse = -4.0\nsamples = 1\nvalue = 44460850.0"] ;
618 -> 620 ;
621 [label="genre_Fantasy <= 1.6\nmse = 907233749191176.0\nsamples = 2\nvalue = 239894724.6"] ;
605 -> 621 ;
622 [label="mse = 0.0\nsamples = 1\nvalue = 224834564.0"] ;
621 -> 622 ;
623 [label="mse = 16.0\nsamples = 1\nvalue = 300135367.0"] ;
621 -> 623 ;
624 [label="runtime <= -1.1\nmse = 9244890469729.9\nsamples = 2\nvalue = 11766371.8"] ;
604 -> 624 ;
625 [label="mse = 0.0\nsamples = 1\nvalue = 6500000.0"] ;
624 -> 625 ;
626 [label="mse = 0.0\nsamples = 1\nvalue = 13521829.0"] ;
624 -> 626 ;
627 [label="runtime <= -0.5\nmse = 8.91506621533471e+16\nsamples = 31\nvalue = 393261000.5"] ;
603 -> 627 ;
628 [label="original_language <= 0.5\nmse = 5.728813953758061e+16\nsamples = 26\nvalue = 339620381.5"] ;
627 -> 628 ;
629 [label="runtime <= -0.9\nmse = 5.575375031366717e+16\nsamples = 25\nvalue = 349005939.5"] ;
628 -> 629 ;
630 [label="runtime <= -0.9\nmse = 5.334089052598061e+16\nsamples = 11\nvalue = 405112878.1"] ;
629 -> 630 ;
631 [label="runtime <= -1.0\nmse = 4.583217226634982e+16\nsamples = 8\nvalue = 327947611.8"] ;
630 -> 631 ;
632 [label="genre_Fantasy <= 1.6\nmse = 7.326251020388102e+16\nsamples = 4\nvalue = 471471096.5"] ;
631 -> 632 ;
633 [label="mse = 9.031304871861363e+16\nsamples = 3\nvalue = 514396317.0"] ;
632 -> 633 ;
634 [label="mse = -128.0\nsamples = 1\nvalue = 342695435.0"] ;
632 -> 634 ;
635 [label="genre_Fantasy <= 1.6\nmse = 1.1660640611651728e+16\nsamples = 4\nvalue = 245934192.0"] ;
631 -> 635 ;
636 [label="genre_Family <= 1.5\nmse = 8028996235475776.0\nsamples = 2\nvalue = 194499834.8"] ;
635 -> 636 ;
637 [label="mse = 8.0\nsamples = 1\nvalue = 246233113.0"] ;
636 -> 637 ;
638 [label="mse = 0.0\nsamples = 1\nvalue = 39300000.0"] ;
636 -> 638 ;
639 [label="mse = 8272410117644464.0\nsamples = 2\nvalue = 314513335.0"] ;
635 -> 639 ;
640 [label="mse = 1.258430800836768e+16\nsamples = 3\nvalue = 617317360.5"] ;
630 -> 640 ;
641 [label="runtime <= -0.8\nmse = 5.343166017206307e+16\nsamples = 14\nvalue = 306925735.6"] ;
629 -> 641 ;
642 [label="mse = 4040672531630.0\nsamples = 2\nvalue = 71357614.7"] ;
641 -> 642 ;
643 [label="runtime <= -0.7\nmse = 5.133916265812683e+16\nsamples = 12\nvalue = 348496580.5"] ;
641 -> 643 ;
644 [label="genre_Fantasy <= 1.6\nmse = 5.144386613275712e+16\nsamples = 5\nvalue = 434989129.6"] ;
643 -> 644 ;
645 [label="runtime <= -0.8\nmse = 6.608320235730724e+16\nsamples = 3\nvalue = 460028466.8"] ;
644 -> 645 ;
646 [label="mse = 7.676416372434362e+16\nsamples = 2\nvalue = 439470909.0"] ;
645 -> 646 ;
647 [label="mse = 0.0\nsamples = 1\nvalue = 562816256.0"] ;
645 -> 647 ;
648 [label="runtime <= -0.8\nmse = 2236565115200.0\nsamples = 2\nvalue = 359871118.0"] ;
644 -> 648 ;
649 [label="mse = 0.0\nsamples = 1\nvalue = 358375603.0"] ;
648 -> 649 ;
650 [label="mse = 0.0\nsamples = 1\nvalue = 361366633.0"] ;
648 -> 650 ;
651 [label="runtime <= -0.7\nmse = 3.868546692691158e+16\nsamples = 7\nvalue = 271614314.6"] ;
643 -> 651 ;
652 [label="mse = 2996613731329.0\nsamples = 2\nvalue = 2831073.0"] ;
651 -> 652 ;
653 [label="runtime <= -0.6\nmse = 2.319883075230968e+16\nsamples = 5\nvalue = 348409526.4"] ;
651 -> 653 ;
654 [label="genre_Science_Fiction <= 1.4\nmse = 1.585094734749248e+16\nsamples = 4\nvalue = 388435152.5"] ;
653 -> 654 ;
655 [label="mse = 2.872968489100192e+16\nsamples = 2\nvalue = 423660564.3"] ;
654 -> 655 ;
656 [label="genre_Fantasy <= 1.6\nmse = 490550526327168.0\nsamples = 2\nvalue = 353209740.7"] ;
654 -> 656 ;
657 [label="mse = 0.0\nsamples = 1\nvalue = 321887208.0"] ;
656 -> 657 ;
658 [label="mse = 0.0\nsamples = 1\nvalue = 368871007.0"] ;
656 -> 658 ;
659 [label="mse = 92.0\nsamples = 1\nvalue = 108255770.0"] ;
653 -> 659 ;
660 [label="mse = 1295.0\nsamples = 1\nvalue = 11125849.0"] ;
628 -> 660 ;
661 [label="runtime <= -0.4\nmse = 1.5319314365472173e+17\nsamples = 5\nvalue = 568812117.5"] ;
627 -> 661 ;
662 [label="mse = 4.489007221611136e+16\nsamples = 2\nvalue = 820945210.0"] ;
661 -> 662 ;
663 [label="runtime <= -0.0\nmse = 1.1532913499980298e+17\nsamples = 3\nvalue = 266252406.4"] ;
661 -> 663 ;
664 [label="mse = 1.2476818898718434e+17\nsamples = 2\nvalue = 328531182.5"] ;
663 -> 664 ;
665 [label="mse = -100.0\nsamples = 1\nvalue = 17137302.0"] ;
663 -> 665 ;
666 [label="runtime <= 1.5\nmse = 9.095010201697248e+16\nsamples = 274\nvalue = 266951169.7"] ;
0 -> 666 [labeldistance=2.5, labelangle=-45, headlabel="False"] ;
667 [label="runtime <= 0.7\nmse = 4.261158388847767e+16\nsamples = 239\nvalue = 191732431.4"] ;
666 -> 667 ;
668 [label="genre_Animation <= 2.4\nmse = 3.0589310707582452e+16\nsamples = 183\nvalue = 158015827.4"] ;
667 -> 668 ;
669 [label="lang_sa <= 28.1\nmse = 2.0884944264077824e+16\nsamples = 144\nvalue = 128826684.7"] ;
668 -> 669 ;
670 [label="lang_ne <= 28.1\nmse = 2.036340011646417e+16\nsamples = 143\nvalue = 126195747.9"] ;
669 -> 670 ;
671 [label="runtime <= 0.4\nmse = 1.987687521452958e+16\nsamples = 142\nvalue = 123622770.1"] ;
670 -> 671 ;
672 [label="runtime <= 0.2\nmse = 2.266800974556731e+16\nsamples = 111\nvalue = 135034471.2"] ;
671 -> 672 ;
673 [label="runtime <= -0.1\nmse = 1.8284439498599624e+16\nsamples = 98\nvalue = 117536723.6"] ;
672 -> 673 ;
674 [label="runtime <= -0.4\nmse = 1.3461274695045954e+16\nsamples = 70\nvalue = 105752885.1"] ;
673 -> 674 ;
675 [label="runtime <= -0.5\nmse = 1.6909412862811812e+16\nsamples = 49\nvalue = 120724586.7"] ;
674 -> 675 ;
676 [label="genre_Family <= 1.5\nmse = 6007685073987788.0\nsamples = 30\nvalue = 99028884.5"] ;
675 -> 676 ;
677 [label="runtime <= -0.7\nmse = 7368642312250114.0\nsamples = 20\nvalue = 130324087.4"] ;
676 -> 677 ;
678 [label="runtime <= -1.0\nmse = 7926607602328595.0\nsamples = 15\nvalue = 146651614.1"] ;
677 -> 678 ;
679 [label="runtime <= -1.1\nmse = 1106340786675102.4\nsamples = 2\nvalue = 53603862.5"] ;
678 -> 679 ;
680 [label="mse = 0.0\nsamples = 1\nvalue = 20342161.0"] ;
679 -> 680 ;
681 [label="mse = 0.0\nsamples = 1\nvalue = 86865564.0"] ;
679 -> 681 ;
682 [label="runtime <= -0.9\nmse = 7637241972865464.0\nsamples = 13\nvalue = 156446114.3"] ;
678 -> 682 ;
683 [label="mse = 3310143032814800.0\nsamples = 2\nvalue = 218116860.5"] ;
682 -> 683 ;
684 [label="runtime <= -0.8\nmse = 7506471238891944.0\nsamples = 11\nvalue = 140000581.9"] ;
682 -> 684 ;
685 [label="runtime <= -0.8\nmse = 7194347263533158.0\nsamples = 5\nvalue = 98704660.0"] ;
684 -> 685 ;
686 [label="genre_Science_Fiction <= 1.4\nmse = 5603333600263776.0\nsamples = 3\nvalue = 140047967.2"] ;
685 -> 686 ;
687 [label="runtime <= -0.9\nmse = 3065432941811856.0\nsamples = 2\nvalue = 173235610.0"] ;
686 -> 687 ;
688 [label="mse = 0.0\nsamples = 1\nvalue = 94935764.0"] ;
687 -> 688 ;
689 [label="mse = 0.0\nsamples = 1\nvalue = 212385533.0"] ;
687 -> 689 ;
690 [label="mse = -1.0\nsamples = 1\nvalue = 40485039.0"] ;
686 -> 690 ;
691 [label="genre_Fantasy <= 1.6\nmse = 120760263864505.8\nsamples = 2\nvalue = 16018045.5"] ;
685 -> 691 ;
692 [label="mse = 0.0\nsamples = 1\nvalue = 27007143.0"] ;
691 -> 692 ;
693 [label="mse = 0.0\nsamples = 1\nvalue = 5028948.0"] ;
691 -> 693 ;
694 [label="genre_Science_Fiction <= 1.4\nmse = 5819717035437844.0\nsamples = 6\nvalue = 167531196.6"] ;
684 -> 694 ;
695 [label="genre_Fantasy <= 1.6\nmse = 548327636203364.0\nsamples = 4\nvalue = 149663779.9"] ;
694 -> 695 ;
696 [label="mse = 6621466179526.0\nsamples = 2\nvalue = 123393362.0"] ;
695 -> 696 ;
697 [label="runtime <= -0.7\nmse = 48805267335832.0\nsamples = 2\nvalue = 169366593.2"] ;
695 -> 697 ;
698 [label="mse = 0.0\nsamples = 1\nvalue = 165333180.0"] ;
697 -> 698 ;
699 [label="mse = 0.0\nsamples = 1\nvalue = 181466833.0"] ;
697 -> 699 ;
700 [label="genre_Fantasy <= 1.6\nmse = 1.9241477806031704e+16\nsamples = 2\nvalue = 230067155.0"] ;
694 -> 700 ;
701 [label="mse = 0.0\nsamples = 1\nvalue = 368780809.0"] ;
700 -> 701 ;
702 [label="mse = 7.0\nsamples = 1\nvalue = 91353501.0"] ;
700 -> 702 ;
703 [label="genre_Science_Fiction <= 1.4\nmse = 1217000804090490.0\nsamples = 5\nvalue = 73177744.2"] ;
677 -> 703 ;
704 [label="runtime <= -0.6\nmse = 729955006303039.2\nsamples = 3\nvalue = 46552401.7"] ;
703 -> 704 ;
705 [label="mse = 0.0\nsamples = 1\nvalue = 35692920.0"] ;
704 -> 705 ;
706 [label="mse = 1006486252903056.4\nsamples = 2\nvalue = 51982142.5"] ;
704 -> 706 ;
707 [label="genre_Fantasy <= 1.6\nmse = 286228875393324.0\nsamples = 2\nvalue = 99803086.7"] ;
703 -> 707 ;
708 [label="mse = 0.0\nsamples = 1\nvalue = 123729176.0"] ;
707 -> 708 ;
709 [label="mse = 0.0\nsamples = 1\nvalue = 87840042.0"] ;
707 -> 709 ;
710 [label="runtime <= -0.7\nmse = 704158477872898.0\nsamples = 10\nvalue = 54556754.1"] ;
676 -> 710 ;
711 [label="genre_Science_Fiction <= 1.4\nmse = 496158714665700.8\nsamples = 7\nvalue = 40883355.2"] ;
710 -> 711 ;
712 [label="runtime <= -0.8\nmse = 40197168034685.5\nsamples = 3\nvalue = 20445274.4"] ;
711 -> 712 ;
713 [label="genre_Fantasy <= 1.6\nmse = 51433462722222.1\nsamples = 2\nvalue = 22940214.7"] ;
712 -> 713 ;
714 [label="mse = 0.0\nsamples = 1\nvalue = 33082548.0"] ;
713 -> 714 ;
715 [label="mse = 0.0\nsamples = 1\nvalue = 17869048.0"] ;
713 -> 715 ;
716 [label="mse = 0.0\nsamples = 1\nvalue = 16702864.0"] ;
712 -> 716 ;
717 [label="runtime <= -0.9\nmse = 116689967722059.0\nsamples = 4\nvalue = 61321436.0"] ;
711 -> 717 ;
718 [label="runtime <= -1.0\nmse = 101192976918784.0\nsamples = 2\nvalue = 67940528.0"] ;
717 -> 718 ;
719 [label="mse = 0.0\nsamples = 1\nvalue = 57881056.0"] ;
718 -> 719 ;
720 [label="mse = 0.0\nsamples = 1\nvalue = 78000000.0"] ;
718 -> 720 ;
721 [label="runtime <= -0.8\nmse = 78340873919282.5\nsamples = 2\nvalue = 56908708.0"] ;
717 -> 721 ;
722 [label="mse = 0.0\nsamples = 1\nvalue = 50650079.0"] ;
721 -> 722 ;
723 [label="mse = 0.0\nsamples = 1\nvalue = 69425966.0"] ;
721 -> 723 ;
724 [label="genre_Science_Fiction <= 1.4\nmse = 496716867260305.0\nsamples = 3\nvalue = 69749419.6"] ;
710 -> 724 ;
725 [label="runtime <= -0.7\nmse = 317014286503755.0\nsamples = 2\nvalue = 74932642.4"] ;
724 -> 725 ;
726 [label="mse = 0.0\nsamples = 1\nvalue = 61141030.0"] ;
725 -> 726 ;
727 [label="mse = 2.0\nsamples = 1\nvalue = 97918663.0"] ;
725 -> 727 ;
728 [label="mse = -1.0\nsamples = 1\nvalue = 28283637.0"] ;
724 -> 728 ;
729 [label="genre_Fantasy <= 1.6\nmse = 3.666186740890635e+16\nsamples = 19\nvalue = 166088327.5"] ;
675 -> 729 ;
730 [label="runtime <= -0.5\nmse = 2.0699209805949732e+16\nsamples = 15\nvalue = 137640214.1"] ;
729 -> 730 ;
731 [label="genre_Science_Fiction <= 1.4\nmse = 8345140235800813.0\nsamples = 6\nvalue = 84110888.3"] ;
730 -> 731 ;
732 [label="genre_Family <= 1.5\nmse = 530449381391948.5\nsamples = 3\nvalue = 44599379.0"] ;
731 -> 732 ;
733 [label="mse = 24905773953192.2\nsamples = 2\nvalue = 28570568.5"] ;
732 -> 733 ;
734 [label="mse = 0.0\nsamples = 1\nvalue = 76657000.0"] ;
732 -> 734 ;
735 [label="mse = 1.2157136708686408e+16\nsamples = 3\nvalue = 113744520.2"] ;
731 -> 735 ;
736 [label="genre_Science_Fiction <= 1.4\nmse = 2.557709722547831e+16\nsamples = 9\nvalue = 171704330.5"] ;
730 -> 736 ;
737 [label="runtime <= -0.4\nmse = 8844748969229680.0\nsamples = 7\nvalue = 140390577.3"] ;
736 -> 737 ;
738 [label="original_language <= 3.9\nmse = 7306506442879518.0\nsamples = 4\nvalue = 120640218.7"] ;
737 -> 738 ;
739 [label="mse = 5773163487797156.0\nsamples = 3\nvalue = 142980929.8"] ;
738 -> 739 ;
740 [label="mse = -1.0\nsamples = 1\nvalue = 8936663.0"] ;
738 -> 740 ;
741 [label="original_language <= 4.5\nmse = 9580774017158156.0\nsamples = 3\nvalue = 179891294.7"] ;
737 -> 741 ;
742 [label="mse = 1.4366485283355076e+16\nsamples = 2\nvalue = 181139726.0"] ;
741 -> 742 ;
743 [label="mse = 0.0\nsamples = 1\nvalue = 177394432.0"] ;
741 -> 743 ;
744 [label="genre_Family <= 1.5\nmse = 7.660402365791378e+16\nsamples = 2\nvalue = 312616220.0"] ;
736 -> 744 ;
745 [label="mse = 0.0\nsamples = 1\nvalue = 589390539.0"] ;
744 -> 745 ;
746 [label="mse = 23.0\nsamples = 1\nvalue = 35841901.0"] ;
744 -> 746 ;
747 [label="runtime <= -0.5\nmse = 8.846377146237283e+16\nsamples = 4\nvalue = 294104838.0"] ;
729 -> 747 ;
748 [label="genre_Science_Fiction <= 1.4\nmse = 8.715214166322746e+16\nsamples = 3\nvalue = 381853846.0"] ;
747 -> 748 ;
749 [label="mse = 4.184387369873574e+16\nsamples = 2\nvalue = 553982033.5"] ;
748 -> 749 ;
750 [label="mse = -65.0\nsamples = 1\nvalue = 37597471.0"] ;
748 -> 750 ;
751 [label="mse = 28.0\nsamples = 1\nvalue = 30857814.0"] ;
747 -> 751 ;
752 [label="genre_Family <= 1.5\nmse = 4942361069424525.0\nsamples = 21\nvalue = 74902106.2"] ;
674 -> 752 ;
753 [label="runtime <= -0.2\nmse = 5281766254220398.0\nsamples = 19\nvalue = 80169767.7"] ;
752 -> 753 ;
754 [label="runtime <= -0.2\nmse = 9033347971809342.0\nsamples = 12\nvalue = 96142329.7"] ;
753 -> 754 ;
755 [label="genre_Science_Fiction <= 1.4\nmse = 6518419731604916.0\nsamples = 10\nvalue = 78909445.9"] ;
754 -> 755 ;
756 [label="runtime <= -0.3\nmse = 6345435544963462.0\nsamples = 9\nvalue = 71487100.1"] ;
755 -> 756 ;
757 [label="runtime <= -0.3\nmse = 7847104043384333.0\nsamples = 7\nvalue = 82837802.9"] ;
756 -> 757 ;
758 [label="genre_Fantasy <= 1.6\nmse = 9152773662737670.0\nsamples = 5\nvalue = 63720178.7"] ;
757 -> 758 ;
759 [label="original_language <= 4.3\nmse = 340957926652636.8\nsamples = 3\nvalue = 24132540.8"] ;
758 -> 759 ;
760 [label="mse = 23964587574050.0\nsamples = 2\nvalue = 13756535.0"] ;
759 -> 760 ;
761 [label="mse = 0.0\nsamples = 1\nvalue = 55260558.0"] ;
759 -> 761 ;
762 [label="mse = 1.7373318679981108e+16\nsamples = 2\nvalue = 142895454.5"] ;
758 -> 762 ;
763 [label="genre_Fantasy <= 1.6\nmse = 3042863469265072.0\nsamples = 2\nvalue = 121073051.3"] ;
757 -> 763 ;
764 [label="mse = 0.0\nsamples = 1\nvalue = 160078586.0"] ;
763 -> 764 ;
765 [label="mse = 4.0\nsamples = 1\nvalue = 43061982.0"] ;
763 -> 765 ;
766 [label="mse = 294368599540288.2\nsamples = 2\nvalue = 37434991.7"] ;
756 -> 766 ;
767 [label="mse = -16.0\nsamples = 1\nvalue = 167977596.0"] ;
755 -> 767 ;
768 [label="mse = 1.0902982667770464e+16\nsamples = 2\nvalue = 208156074.5"] ;
754 -> 768 ;
769 [label="runtime <= -0.1\nmse = 695998135095242.0\nsamples = 7\nvalue = 63056308.4"] ;
753 -> 769 ;
770 [label="genre_Science_Fiction <= 1.4\nmse = 914676040421661.6\nsamples = 5\nvalue = 56866017.2"] ;
769 -> 770 ;
771 [label="mse = 126803642761156.0\nsamples = 3\nvalue = 59059527.0"] ;
770 -> 771 ;
772 [label="mse = 1885984235526400.0\nsamples = 2\nvalue = 54124130.0"] ;
770 -> 772 ;
773 [label="genre_Science_Fiction <= 1.4\nmse = 109246591201880.0\nsamples = 2\nvalue = 74198832.6"] ;
769 -> 773 ;
774 [label="mse = 0.5\nsamples = 1\nvalue = 65664721.0"] ;
773 -> 774 ;
775 [label="mse = 0.0\nsamples = 1\nvalue = 87000000.0"] ;
773 -> 775 ;
776 [label="runtime <= -0.3\nmse = 821980771491364.0\nsamples = 2\nvalue = 36711559.8"] ;
752 -> 776 ;
777 [label="mse = 0.0\nsamples = 1\nvalue = 86369815.0"] ;
776 -> 777 ;
778 [label="mse = 0.0\nsamples = 1\nvalue = 20158808.0"] ;
776 -> 778 ;
779 [label="runtime <= 0.0\nmse = 3.0036632521293704e+16\nsamples = 28\nvalue = 149703417.6"] ;
673 -> 779 ;
780 [label="runtime <= -0.0\nmse = 4.083926025881091e+16\nsamples = 15\nvalue = 198903221.4"] ;
779 -> 780 ;
781 [label="genre_Family <= 1.5\nmse = 2.306612557907187e+16\nsamples = 13\nvalue = 175221641.2"] ;
780 -> 781 ;
782 [label="genre_Fantasy <= 1.6\nmse = 2.8526449803627692e+16\nsamples = 11\nvalue = 186172191.4"] ;
781 -> 782 ;
783 [label="runtime <= -0.1\nmse = 3.070810688820642e+16\nsamples = 10\nvalue = 182293779.1"] ;
782 -> 783 ;
784 [label="genre_Science_Fiction <= 1.4\nmse = 3.785529065536924e+16\nsamples = 7\nvalue = 169567118.4"] ;
783 -> 784 ;
785 [label="mse = 4.698156049031836e+16\nsamples = 5\nvalue = 190732424.4"] ;
784 -> 785 ;
786 [label="mse = 1.1119877020434746e+16\nsamples = 2\nvalue = 116653853.5"] ;
784 -> 786 ;
787 [label="mse = 2.015783749900235e+16\nsamples = 3\nvalue = 200111104.0"] ;
783 -> 787 ;
788 [label="mse = 216.0\nsamples = 1\nvalue = 232713139.0"] ;
782 -> 788 ;
789 [label="runtime <= -0.1\nmse = 3663752147103632.0\nsamples = 2\nvalue = 139632353.2"] ;
781 -> 789 ;
790 [label="mse = 0.0\nsamples = 1\nvalue = 174578751.0"] ;
789 -> 790 ;
791 [label="mse = 0.0\nsamples = 1\nvalue = 34793160.0"] ;
789 -> 791 ;
792 [label="mse = 1.466249131002544e+17\nsamples = 2\nvalue = 400196652.5"] ;
780 -> 792 ;
793 [label="genre_Family <= 1.5\nmse = 1.338170958794938e+16\nsamples = 13\nvalue = 97770291.4"] ;
779 -> 793 ;
794 [label="runtime <= 0.1\nmse = 2.107376428668143e+16\nsamples = 8\nvalue = 125602181.8"] ;
793 -> 794 ;
795 [label="runtime <= 0.1\nmse = 3.197183226464765e+16\nsamples = 5\nvalue = 159186827.2"] ;
794 -> 795 ;
796 [label="genre_Fantasy <= 1.6\nmse = 1.698029297469176e+16\nsamples = 4\nvalue = 99484920.8"] ;
795 -> 796 ;
797 [label="mse = 1.9636033451478324e+16\nsamples = 3\nvalue = 117313733.2"] ;
796 -> 797 ;
798 [label="mse = -1.0\nsamples = 1\nvalue = 28169671.0"] ;
796 -> 798 ;
799 [label="mse = 0.0\nsamples = 1\nvalue = 457696359.0"] ;
795 -> 799 ;
800 [label="genre_Science_Fiction <= 1.4\nmse = 496930803214235.0\nsamples = 3\nvalue = 75225213.8"] ;
794 -> 800 ;
801 [label="runtime <= 0.2\nmse = 128004298702757.5\nsamples = 2\nvalue = 63664827.7"] ;
800 -> 801 ;
802 [label="mse = 0.0\nsamples = 1\nvalue = 71664962.0"] ;
801 -> 802 ;
803 [label="mse = -1.0\nsamples = 1\nvalue = 47664559.0"] ;
801 -> 803 ;
804 [label="mse = 0.0\nsamples = 1\nvalue = 109906372.0"] ;
800 -> 804 ;
805 [label="runtime <= 0.1\nmse = 1588038999886508.0\nsamples = 5\nvalue = 62980428.5"] ;
793 -> 805 ;
806 [label="genre_Fantasy <= 1.6\nmse = 1936104535239605.2\nsamples = 2\nvalue = 42251339.3"] ;
805 -> 806 ;
807 [label="mse = 0.0\nsamples = 1\nvalue = 104478416.0"] ;
806 -> 807 ;
808 [label="mse = 0.0\nsamples = 1\nvalue = 11137801.0"] ;
806 -> 808 ;
809 [label="genre_Fantasy <= 1.6\nmse = 966692346502206.0\nsamples = 3\nvalue = 75417882.0"] ;
805 -> 809 ;
810 [label="runtime <= 0.2\nmse = 331531901280306.5\nsamples = 2\nvalue = 62175272.5"] ;
809 -> 810 ;
811 [label="mse = 0.0\nsamples = 1\nvalue = 43967255.0"] ;
810 -> 811 ;
812 [label="mse = 0.0\nsamples = 1\nvalue = 80383290.0"] ;
810 -> 812 ;
813 [label="mse = -2.0\nsamples = 1\nvalue = 128388320.0"] ;
809 -> 813 ;
814 [label="genre_Fantasy <= 1.6\nmse = 3.6225253755243976e+16\nsamples = 13\nvalue = 255768930.2"] ;
672 -> 814 ;
815 [label="genre_Family <= 1.5\nmse = 3991227654894121.5\nsamples = 7\nvalue = 128179492.5"] ;
814 -> 815 ;
816 [label="runtime <= 0.3\nmse = 2713713404178252.0\nsamples = 6\nvalue = 140525404.7"] ;
815 -> 816 ;
817 [label="runtime <= 0.3\nmse = 2208341468280620.0\nsamples = 5\nvalue = 162897655.1"] ;
816 -> 817 ;
818 [label="mse = 6766536582540560.0\nsamples = 2\nvalue = 179058960.5"] ;
817 -> 818 ;
819 [label="genre_Science_Fiction <= 1.4\nmse = 238798259702424.0\nsamples = 3\nvalue = 156433133.0"] ;
817 -> 819 ;
820 [label="mse = 0.0\nsamples = 1\nvalue = 164602163.0"] ;
819 -> 820 ;
821 [label="mse = 323849264903040.0\nsamples = 2\nvalue = 150987113.0"] ;
819 -> 821 ;
822 [label="mse = -1.0\nsamples = 1\nvalue = 88323487.0"] ;
816 -> 822 ;
823 [label="mse = 23.0\nsamples = 1\nvalue = 4720371.0"] ;
815 -> 823 ;
824 [label="runtime <= 0.3\nmse = 3.140765337137952e+16\nsamples = 6\nvalue = 411711576.3"] ;
814 -> 824 ;
825 [label="runtime <= 0.3\nmse = 9729079763021056.0\nsamples = 3\nvalue = 325351467.7"] ;
824 -> 825 ;
826 [label="genre_Family <= 1.5\nmse = 472005019382688.0\nsamples = 2\nvalue = 393960540.5"] ;
825 -> 826 ;
827 [label="mse = 0.0\nsamples = 1\nvalue = 372234864.0"] ;
826 -> 827 ;
828 [label="mse = 32.0\nsamples = 1\nvalue = 415686217.0"] ;
826 -> 828 ;
829 [label="mse = 28.0\nsamples = 1\nvalue = 188133322.0"] ;
825 -> 829 ;
830 [label="genre_Family <= 1.5\nmse = 3.00163903745856e+16\nsamples = 3\nvalue = 584431793.7"] ;
824 -> 830 ;
831 [label="mse = 3.603796924982944e+16\nsamples = 2\nvalue = 639163309.0"] ;
830 -> 831 ;
832 [label="mse = -32.0\nsamples = 1\nvalue = 474968763.0"] ;
830 -> 832 ;
833 [label="lang_si <= 28.1\nmse = 8584428396088718.0\nsamples = 31\nvalue = 85260030.3"] ;
671 -> 833 ;
834 [label="genre_Fantasy <= 1.6\nmse = 7407800019471966.0\nsamples = 30\nvalue = 79874378.8"] ;
833 -> 834 ;
835 [label="runtime <= 0.6\nmse = 8353995110768011.0\nsamples = 24\nvalue = 89886772.5"] ;
834 -> 835 ;
836 [label="original_language <= 1.6\nmse = 8615430784082771.0\nsamples = 21\nvalue = 80944331.0"] ;
835 -> 836 ;
837 [label="genre_Family <= 1.5\nmse = 8728360843456122.0\nsamples = 20\nvalue = 83120664.8"] ;
836 -> 837 ;
838 [label="runtime <= 0.5\nmse = 1.0712861428838806e+16\nsamples = 17\nvalue = 88149599.0"] ;
837 -> 838 ;
839 [label="runtime <= 0.4\nmse = 1.518262431872458e+16\nsamples = 11\nvalue = 104278258.0"] ;
838 -> 839 ;
840 [label="mse = 55016606313124.0\nsamples = 2\nvalue = 58559977.0"] ;
839 -> 840 ;
841 [label="runtime <= 0.5\nmse = 1.700246032374745e+16\nsamples = 9\nvalue = 110809441.0"] ;
839 -> 841 ;
842 [label="genre_Science_Fiction <= 1.4\nmse = 1.5163332884275962e+16\nsamples = 4\nvalue = 99446528.4"] ;
841 -> 842 ;
843 [label="mse = 2.826151611190176e+16\nsamples = 3\nvalue = 131580230.8"] ;
842 -> 843 ;
844 [label="mse = -4.0\nsamples = 1\nvalue = 67312826.0"] ;
842 -> 844 ;
845 [label="genre_Science_Fiction <= 1.4\nmse = 1.905293669492556e+16\nsamples = 5\nvalue = 125959991.2"] ;
841 -> 845 ;
846 [label="mse = 1.8963729791945332e+16\nsamples = 3\nvalue = 83322732.5"] ;
845 -> 846 ;
847 [label="mse = 8323735541236560.0\nsamples = 2\nvalue = 211234508.5"] ;
845 -> 847 ;
848 [label="genre_Science_Fiction <= 1.4\nmse = 1482005724113545.0\nsamples = 6\nvalue = 59476427.6"] ;
838 -> 848 ;
849 [label="runtime <= 0.6\nmse = 1522737506847666.0\nsamples = 3\nvalue = 81287143.0"] ;
848 -> 849 ;
850 [label="mse = 0.0\nsamples = 1\nvalue = 144056873.0"] ;
849 -> 850 ;
851 [label="mse = 279188229453377.5\nsamples = 2\nvalue = 60363899.7"] ;
849 -> 851 ;
852 [label="mse = 764401774120359.8\nsamples = 3\nvalue = 42027855.2"] ;
848 -> 852 ;
853 [label="runtime <= 0.6\nmse = 1227957868718559.5\nsamples = 3\nvalue = 65160185.6"] ;
837 -> 853 ;
854 [label="runtime <= 0.5\nmse = 6870215535211.8\nsamples = 2\nvalue = 43041862.2"] ;
853 -> 854 ;
855 [label="mse = 0.0\nsamples = 1\nvalue = 44352417.0"] ;
854 -> 855 ;
856 [label="mse = -1.0\nsamples = 1\nvalue = 37799643.0"] ;
854 -> 856 ;
857 [label="mse = -2.0\nsamples = 1\nvalue = 120455994.0"] ;
853 -> 857 ;
858 [label="mse = 31.0\nsamples = 1\nvalue = 11301649.0"] ;
836 -> 858 ;
859 [label="genre_Science_Fiction <= 1.4\nmse = 94649338429664.0\nsamples = 3\nvalue = 163661914.5"] ;
835 -> 859 ;
860 [label="mse = 0.0\nsamples = 1\nvalue = 164508066.0"] ;
859 -> 860 ;
861 [label="mse = 125880907968012.0\nsamples = 2\nvalue = 163379864.0"] ;
859 -> 861 ;
862 [label="runtime <= 0.5\nmse = 1411440664231279.0\nsamples = 6\nvalue = 38712315.9"] ;
834 -> 862 ;
863 [label="genre_Family <= 1.5\nmse = 250438668693796.7\nsamples = 3\nvalue = 14955571.8"] ;
862 -> 863 ;
864 [label="genre_Science_Fiction <= 1.4\nmse = 3288442802.0\nsamples = 2\nvalue = 5818902.0"] ;
863 -> 864 ;
865 [label="mse = 0.0\nsamples = 1\nvalue = 5900000.0"] ;
864 -> 865 ;
866 [label="mse = 0.0\nsamples = 1\nvalue = 5778353.0"] ;
864 -> 866 ;
867 [label="mse = 0.0\nsamples = 1\nvalue = 42365581.0"] ;
863 -> 867 ;
868 [label="runtime <= 0.6\nmse = 1527530896065157.0\nsamples = 3\nvalue = 57717711.2"] ;
862 -> 868 ;
869 [label="mse = 0.0\nsamples = 1\nvalue = 105316267.0"] ;
868 -> 869 ;
870 [label="genre_Science_Fiction <= 1.4\nmse = 28526477613359.5\nsamples = 2\nvalue = 25985340.7"] ;
868 -> 870 ;
871 [label="mse = 0.0\nsamples = 1\nvalue = 18432000.0"] ;
870 -> 871 ;
872 [label="mse = 0.0\nsamples = 1\nvalue = 29762011.0"] ;
870 -> 872 ;
873 [label="mse = 0.0\nsamples = 1\nvalue = 333000000.0"] ;
833 -> 873 ;
874 [label="mse = -736.0\nsamples = 1\nvalue = 389925971.0"] ;
670 -> 874 ;
875 [label="mse = 384.0\nsamples = 1\nvalue = 401128639.0"] ;
669 -> 875 ;
876 [label="runtime <= -0.9\nmse = 5.0917788593526536e+16\nsamples = 39\nvalue = 258024529.5"] ;
668 -> 876 ;
877 [label="original_language <= 0.3\nmse = 6150805181351124.0\nsamples = 16\nvalue = 120641689.5"] ;
876 -> 877 ;
878 [label="runtime <= -1.0\nmse = 4097052301254712.0\nsamples = 13\nvalue = 143357942.0"] ;
877 -> 878 ;
879 [label="genre_Fantasy <= 1.6\nmse = 1529657873481938.0\nsamples = 10\nvalue = 129829716.9"] ;
878 -> 879 ;
880 [label="runtime <= -1.8\nmse = 1416709047653236.0\nsamples = 8\nvalue = 138240717.2"] ;
879 -> 880 ;
881 [label="mse = 0.0\nsamples = 1\nvalue = 84460846.0"] ;
880 -> 881 ;
882 [label="runtime <= -1.1\nmse = 1090440504629436.0\nsamples = 7\nvalue = 147204029.1"] ;
880 -> 882 ;
883 [label="runtime <= -1.6\nmse = 376517084466244.0\nsamples = 4\nvalue = 153665520.3"] ;
882 -> 883 ;
884 [label="mse = 0.0\nsamples = 1\nvalue = 135680000.0"] ;
883 -> 884 ;
885 [label="runtime <= -1.3\nmse = 322166420453812.0\nsamples = 3\nvalue = 162658280.5"] ;
883 -> 885 ;
886 [label="mse = 0.0\nsamples = 1\nvalue = 169956806.0"] ;
885 -> 886 ;
887 [label="mse = 537795891959332.0\nsamples = 2\nvalue = 155359755.0"] ;
885 -> 887 ;
888 [label="runtime <= -1.1\nmse = 2731200335033080.0\nsamples = 3\nvalue = 127819555.3"] ;
882 -> 888 ;
889 [label="mse = 4095585034510564.0\nsamples = 2\nvalue = 128456074.0"] ;
888 -> 889 ;
890 [label="mse = -4.0\nsamples = 1\nvalue = 126546518.0"] ;
888 -> 890 ;
891 [label="genre_Science_Fiction <= 1.4\nmse = 185942113245009.0\nsamples = 2\nvalue = 90578382.0"] ;
879 -> 891 ;
892 [label="mse = 0.0\nsamples = 1\nvalue = 109862682.0"] ;
891 -> 892 ;
893 [label="mse = 0.0\nsamples = 1\nvalue = 80936232.0"] ;
891 -> 893 ;
894 [label="runtime <= -0.9\nmse = 1.0925003820813768e+16\nsamples = 3\nvalue = 200852899.0"] ;
878 -> 894 ;
895 [label="mse = 7686503227525224.0\nsamples = 2\nvalue = 242326289.7"] ;
894 -> 895 ;
896 [label="mse = -17.0\nsamples = 1\nvalue = 76432727.0"] ;
894 -> 896 ;
897 [label="runtime <= -1.4\nmse = 834822373321.9\nsamples = 3\nvalue = 1381363.8"] ;
877 -> 897 ;
898 [label="mse = 0.0\nsamples = 1\nvalue = 103.0"] ;
897 -> 898 ;
899 [label="genre_Family <= 1.5\nmse = 265149271328.0\nsamples = 2\nvalue = 1841784.0"] ;
897 -> 899 ;
900 [label="mse = 0.0\nsamples = 1\nvalue = 1477676.0"] ;
899 -> 900 ;
901 [label="mse = 0.0\nsamples = 1\nvalue = 2570000.0"] ;
899 -> 901 ;
902 [label="genre_Science_Fiction <= 1.4\nmse = 5.97969296848115e+16\nsamples = 23\nvalue = 353429279.6"] ;
876 -> 902 ;
903 [label="runtime <= -0.5\nmse = 5.463069388319965e+16\nsamples = 20\nvalue = 398545852.8"] ;
902 -> 903 ;
904 [label="runtime <= -0.6\nmse = 6.333965597528309e+16\nsamples = 11\nvalue = 339453845.7"] ;
903 -> 904 ;
905 [label="genre_Family <= 1.5\nmse = 5.491292979068115e+16\nsamples = 9\nvalue = 403038231.8"] ;
904 -> 905 ;
906 [label="mse = 0.0\nsamples = 1\nvalue = 97571250.0"] ;
905 -> 906 ;
907 [label="runtime <= -0.8\nmse = 4.679715384664362e+16\nsamples = 8\nvalue = 450033152.1"] ;
905 -> 907 ;
908 [label="genre_Fantasy <= 1.6\nmse = 2.8343552513409344e+16\nsamples = 2\nvalue = 387209162.2"] ;
907 -> 908 ;
909 [label="mse = 0.0\nsamples = 1\nvalue = 95608995.0"] ;
908 -> 909 ;
910 [label="mse = 0.0\nsamples = 1\nvalue = 484409218.0"] ;
908 -> 910 ;
911 [label="genre_Fantasy <= 1.6\nmse = 5.246497181839946e+16\nsamples = 6\nvalue = 477954925.3"] ;
907 -> 911 ;
912 [label="runtime <= -0.7\nmse = 5.293017650859286e+16\nsamples = 4\nvalue = 519280613.0"] ;
911 -> 912 ;
913 [label="runtime <= -0.8\nmse = 3.111925531326592e+16\nsamples = 3\nvalue = 445799372.2"] ;
912 -> 913 ;
914 [label="mse = 3.484684682362928e+16\nsamples = 2\nvalue = 474267678.5"] ;
913 -> 914 ;
915 [label="mse = -16.0\nsamples = 1\nvalue = 331926147.0"] ;
913 -> 915 ;
916 [label="mse = 0.0\nsamples = 1\nvalue = 886686817.0"] ;
912 -> 916 ;
917 [label="runtime <= -0.7\nmse = 4.128768767127517e+16\nsamples = 2\nvalue = 395303550.0"] ;
911 -> 917 ;
918 [label="mse = 0.0\nsamples = 1\nvalue = 538983207.0"] ;
917 -> 918 ;
919 [label="mse = -16.0\nsamples = 1\nvalue = 107944236.0"] ;
917 -> 919 ;
920 [label="mse = 2.2924402102341564e+16\nsamples = 2\nvalue = 101012398.0"] ;
904 -> 920 ;
921 [label="runtime <= -0.1\nmse = 2.655880488206256e+16\nsamples = 9\nvalue = 492108197.2"] ;
903 -> 921 ;
922 [label="runtime <= -0.4\nmse = 4088793581216000.0\nsamples = 5\nvalue = 572019032.2"] ;
921 -> 922 ;
923 [label="mse = 0.0\nsamples = 1\nvalue = 494878759.0"] ;
922 -> 923 ;
924 [label="runtime <= -0.2\nmse = 2807003994028224.0\nsamples = 4\nvalue = 597732456.7"] ;
922 -> 924 ;
925 [label="genre_Fantasy <= 1.6\nmse = 3091239983120320.0\nsamples = 3\nvalue = 604529083.4"] ;
924 -> 925 ;
926 [label="mse = 5128617182149312.0\nsamples = 2\nvalue = 601466440.3"] ;
925 -> 926 ;
927 [label="mse = -64.0\nsamples = 1\nvalue = 609123048.0"] ;
925 -> 927 ;
928 [label="mse = 0.0\nsamples = 1\nvalue = 563749323.0"] ;
924 -> 928 ;
929 [label="runtime <= -0.0\nmse = 3.318437818137187e+16\nsamples = 4\nvalue = 332286527.2"] ;
921 -> 929 ;
930 [label="genre_Family <= 1.5\nmse = 3.0265573251871256e+16\nsamples = 2\nvalue = 197970035.5"] ;
929 -> 930 ;
931 [label="mse = 0.0\nsamples = 1\nvalue = 371940071.0"] ;
930 -> 931 ;
932 [label="mse = 0.0\nsamples = 1\nvalue = 24000000.0"] ;
930 -> 932 ;
933 [label="runtime <= 0.2\nmse = 21343198816896.0\nsamples = 2\nvalue = 466603019.0"] ;
929 -> 933 ;
934 [label="mse = 0.0\nsamples = 1\nvalue = 471222889.0"] ;
933 -> 934 ;
935 [label="mse = 0.0\nsamples = 1\nvalue = 461983149.0"] ;
933 -> 935 ;
936 [label="runtime <= -0.7\nmse = 962640464570108.0\nsamples = 3\nvalue = 73706525.6"] ;
902 -> 936 ;
937 [label="mse = 0.0\nsamples = 1\nvalue = 104945765.0"] ;
936 -> 937 ;
938 [label="genre_Family <= 1.5\nmse = 520078465071648.0\nsamples = 2\nvalue = 52880366.0"] ;
936 -> 938 ;
939 [label="mse = 0.0\nsamples = 1\nvalue = 85131830.0"] ;
938 -> 939 ;
940 [label="mse = 0.0\nsamples = 1\nvalue = 36754634.0"] ;
938 -> 940 ;
941 [label="genre_Science_Fiction <= 1.4\nmse = 6.463269520806117e+16\nsamples = 56\nvalue = 289619346.2"] ;
667 -> 941 ;
942 [label="runtime <= 0.7\nmse = 4.04007078519897e+16\nsamples = 37\nvalue = 240191038.4"] ;
941 -> 942 ;
943 [label="mse = 0.0\nsamples = 1\nvalue = 786636033.0"] ;
942 -> 943 ;
944 [label="runtime <= 1.0\nmse = 3.1902902867231628e+16\nsamples = 36\nvalue = 222843578.3"] ;
942 -> 944 ;
945 [label="runtime <= 0.9\nmse = 4.838525110388179e+16\nsamples = 18\nvalue = 278766706.9"] ;
944 -> 945 ;
946 [label="runtime <= 0.8\nmse = 4.910164341381242e+16\nsamples = 12\nvalue = 213037437.4"] ;
945 -> 946 ;
947 [label="runtime <= 0.8\nmse = 6.5483966330704536e+16\nsamples = 5\nvalue = 350703279.0"] ;
946 -> 947 ;
948 [label="genre_Fantasy <= 1.6\nmse = 2234025898272.5\nsamples = 2\nvalue = 63295718.7"] ;
947 -> 948 ;
949 [label="mse = 0.0\nsamples = 1\nvalue = 61181942.0"] ;
948 -> 949 ;
950 [label="mse = 0.0\nsamples = 1\nvalue = 64352607.0"] ;
948 -> 950 ;
951 [label="genre_Fantasy <= 1.6\nmse = 2.54740242063e+16\nsamples = 3\nvalue = 523147815.2"] ;
947 -> 951 ;
952 [label="mse = 8295202405947104.0\nsamples = 2\nvalue = 406252127.3"] ;
951 -> 952 ;
953 [label="mse = 0.0\nsamples = 1\nvalue = 698491347.0"] ;
951 -> 953 ;
954 [label="genre_Family <= 1.5\nmse = 8705072219371686.0\nsamples = 7\nvalue = 102904764.2"] ;
946 -> 954 ;
955 [label="original_language <= 4.5\nmse = 1228888437464705.8\nsamples = 5\nvalue = 32802011.2"] ;
954 -> 955 ;
956 [label="runtime <= 0.9\nmse = 1041675947755466.4\nsamples = 4\nvalue = 49148842.8"] ;
955 -> 956 ;
957 [label="mse = 605957450383222.0\nsamples = 3\nvalue = 63139409.3"] ;
956 -> 957 ;
958 [label="mse = -1.0\nsamples = 1\nvalue = 7177143.0"] ;
956 -> 958 ;
959 [label="mse = 0.0\nsamples = 1\nvalue = 108348.0"] ;
955 -> 959 ;
960 [label="original_language <= 1.4\nmse = 1490362956535160.0\nsamples = 2\nvalue = 208058893.8"] ;
954 -> 960 ;
961 [label="mse = 0.0\nsamples = 1\nvalue = 185770160.0"] ;
960 -> 961 ;
962 [label="mse = 16.0\nsamples = 1\nvalue = 274925095.0"] ;
960 -> 962 ;
963 [label="genre_Family <= 1.5\nmse = 2.5321247136745024e+16\nsamples = 6\nvalue = 397079392.0"] ;
945 -> 963 ;
964 [label="genre_Fantasy <= 1.6\nmse = 1.969121548613133e+16\nsamples = 5\nvalue = 426137099.3"] ;
963 -> 964 ;
965 [label="mse = 2.499678880326083e+16\nsamples = 4\nvalue = 434576270.6"] ;
964 -> 965 ;
966 [label="mse = 0.0\nsamples = 1\nvalue = 396600000.0"] ;
964 -> 966 ;
967 [label="mse = 92.0\nsamples = 1\nvalue = 135560026.0"] ;
963 -> 967 ;
968 [label="runtime <= 1.2\nmse = 1.4213573578579016e+16\nsamples = 18\nvalue = 178105075.3"] ;
944 -> 968 ;
969 [label="genre_Fantasy <= 1.6\nmse = 2.322976828915775e+16\nsamples = 12\nvalue = 202138748.0"] ;
968 -> 969 ;
970 [label="runtime <= 1.1\nmse = 2.547485043630104e+16\nsamples = 7\nvalue = 230579524.9"] ;
969 -> 970 ;
971 [label="mse = 0.0\nsamples = 1\nvalue = 334901337.0"] ;
970 -> 971 ;
972 [label="runtime <= 1.1\nmse = 2.661525792977636e+16\nsamples = 6\nvalue = 221886040.6"] ;
970 -> 972 ;
973 [label="mse = 1.24668280828124e+16\nsamples = 2\nvalue = 240539083.0"] ;
972 -> 973 ;
974 [label="mse = 3.3428520859709896e+16\nsamples = 4\nvalue = 212559519.4"] ;
972 -> 974 ;
975 [label="runtime <= 1.1\nmse = 1.47683254204329e+16\nsamples = 5\nvalue = 149320162.4"] ;
969 -> 975 ;
976 [label="mse = 0.0\nsamples = 1\nvalue = 79114085.0"] ;
975 -> 976 ;
977 [label="genre_Family <= 1.5\nmse = 1.6271317069523206e+16\nsamples = 4\nvalue = 161021175.3"] ;
975 -> 977 ;
978 [label="mse = 3.1417102445307e+16\nsamples = 3\nvalue = 184743861.7"] ;
977 -> 978 ;
979 [label="mse = -4.0\nsamples = 1\nvalue = 137298489.0"] ;
977 -> 979 ;
980 [label="runtime <= 1.3\nmse = 394948646003628.0\nsamples = 6\nvalue = 146060178.4"] ;
968 -> 980 ;
981 [label="runtime <= 1.2\nmse = 146527464806084.0\nsamples = 4\nvalue = 155616401.1"] ;
980 -> 981 ;
982 [label="mse = 0.0\nsamples = 1\nvalue = 117487473.0"] ;
981 -> 982 ;
983 [label="runtime <= 1.3\nmse = 1260543976900.0\nsamples = 3\nvalue = 159429293.9"] ;
981 -> 983 ;
984 [label="mse = 0.0\nsamples = 1\nvalue = 156167015.0"] ;
983 -> 984 ;
985 [label="original_language <= 1.4\nmse = 86720021076.0\nsamples = 2\nvalue = 159791769.3"] ;
983 -> 985 ;
986 [label="mse = 0.0\nsamples = 1\nvalue = 160000000.0"] ;
985 -> 986 ;
987 [label="mse = 4.0\nsamples = 1\nvalue = 159375308.0"] ;
985 -> 987 ;
988 [label="mse = 136355038077468.0\nsamples = 2\nvalue = 119780566.0"] ;
980 -> 988 ;
989 [label="genre_Family <= 1.5\nmse = 1.0204765596100198e+17\nsamples = 19\nvalue = 404363632.1"] ;
941 -> 989 ;
990 [label="runtime <= 1.4\nmse = 9.664565986099405e+16\nsamples = 18\nvalue = 447847268.0"] ;
989 -> 990 ;
991 [label="runtime <= 0.9\nmse = 8.862017827971843e+16\nsamples = 17\nvalue = 484101318.3"] ;
990 -> 991 ;
992 [label="genre_Fantasy <= 1.6\nmse = 2.0237959871274816e+16\nsamples = 5\nvalue = 330840404.9"] ;
991 -> 992 ;
993 [label="runtime <= 0.8\nmse = 4556949524131680.0\nsamples = 3\nvalue = 411208897.4"] ;
992 -> 993 ;
994 [label="mse = 5657363057644928.0\nsamples = 2\nvalue = 413995431.0"] ;
993 -> 994 ;
995 [label="mse = -64.0\nsamples = 1\nvalue = 400062763.0"] ;
993 -> 995 ;
996 [label="runtime <= 0.8\nmse = 2923408045034018.0\nsamples = 2\nvalue = 129919173.5"] ;
992 -> 996 ;
997 [label="mse = 0.0\nsamples = 1\nvalue = 183987723.0"] ;
996 -> 997 ;
998 [label="mse = 0.0\nsamples = 1\nvalue = 75850624.0"] ;
996 -> 998 ;
999 [label="runtime <= 1.1\nmse = 1.037650780523481e+17\nsamples = 12\nvalue = 551152967.9"] ;
991 -> 999 ;
1000 [label="runtime <= 1.0\nmse = 1.1844925940126136e+17\nsamples = 3\nvalue = 738684963.0"] ;
999 -> 1000 ;
1001 [label="genre_Fantasy <= 1.6\nmse = 7202369414033856.0\nsamples = 2\nvalue = 500307447.5"] ;
1000 -> 1001 ;
1002 [label="mse = 0.0\nsamples = 1\nvalue = 585174222.0"] ;
1001 -> 1002 ;
1003 [label="mse = 0.0\nsamples = 1\nvalue = 415440673.0"] ;
1001 -> 1003 ;
1004 [label="mse = 0.0\nsamples = 1\nvalue = 1215439994.0"] ;
1000 -> 1004 ;
1005 [label="runtime <= 1.3\nmse = 9.038780566184714e+16\nsamples = 9\nvalue = 507876353.6"] ;
999 -> 1005 ;
1006 [label="genre_Fantasy <= 1.6\nmse = 3.4442700600071456e+16\nsamples = 4\nvalue = 384722807.2"] ;
1005 -> 1006 ;
1007 [label="runtime <= 1.2\nmse = 9682288022967104.0\nsamples = 3\nvalue = 312094813.6"] ;
1006 -> 1007 ;
1008 [label="runtime <= 1.2\nmse = 5978746606552272.0\nsamples = 2\nvalue = 248350323.3"] ;
1007 -> 1008 ;
1009 [label="mse = 0.0\nsamples = 1\nvalue = 303025485.0"] ;
1008 -> 1009 ;
1010 [label="mse = 0.0\nsamples = 1\nvalue = 139000000.0"] ;
1008 -> 1010 ;
1011 [label="mse = 0.0\nsamples = 1\nvalue = 407711549.0"] ;
1007 -> 1011 ;
1012 [label="mse = -64.0\nsamples = 1\nvalue = 747862775.0"] ;
1006 -> 1012 ;
1013 [label="runtime <= 1.4\nmse = 1.1419768983263616e+17\nsamples = 5\nvalue = 613436536.3"] ;
1005 -> 1013 ;
1014 [label="mse = 0.0\nsamples = 1\nvalue = 572700000.0"] ;
1013 -> 1014 ;
1015 [label="mse = 1.3290796431252275e+17\nsamples = 4\nvalue = 620225959.0"] ;
1013 -> 1015 ;
1016 [label="mse = -36.0\nsamples = 1\nvalue = 30925690.0"] ;
990 -> 1016 ;
1017 [label="mse = 0.0\nsamples = 1\nvalue = 42000000.0"] ;
989 -> 1017 ;
1018 [label="genre_Science_Fiction <= 1.4\nmse = 1.4689197387686496e+17\nsamples = 35\nvalue = 707344750.2"] ;
666 -> 1018 ;
1019 [label="genre_Fantasy <= 1.6\nmse = 1.2946513261508306e+17\nsamples = 23\nvalue = 596822907.6"] ;
1018 -> 1019 ;
1020 [label="runtime <= 2.2\nmse = 4.605888180089476e+16\nsamples = 13\nvalue = 267438691.2"] ;
1019 -> 1020 ;
1021 [label="runtime <= 2.0\nmse = 4.568367393304518e+16\nsamples = 11\nvalue = 244095752.6"] ;
1020 -> 1021 ;
1022 [label="runtime <= 1.7\nmse = 6.217449078414587e+16\nsamples = 8\nvalue = 303105540.2"] ;
1021 -> 1022 ;
1023 [label="runtime <= 1.6\nmse = 2.1349574158191116e+16\nsamples = 3\nvalue = 186909119.6"] ;
1022 -> 1023 ;
1024 [label="mse = 1.3063980041139008e+16\nsamples = 2\nvalue = 281816745.3"] ;
1023 -> 1024 ;
1025 [label="mse = -1.0\nsamples = 1\nvalue = 44547681.0"] ;
1023 -> 1025 ;
1026 [label="original_language <= 0.3\nmse = 7.556779773406726e+16\nsamples = 5\nvalue = 399935890.7"] ;
1022 -> 1026 ;
1027 [label="runtime <= 1.9\nmse = 6.407445863377146e+16\nsamples = 4\nvalue = 466527805.4"] ;
1026 -> 1027 ;
1028 [label="runtime <= 1.8\nmse = 2.6493831125934016e+16\nsamples = 3\nvalue = 362991104.5"] ;
1027 -> 1028 ;
1029 [label="mse = 0.0\nsamples = 1\nvalue = 429632142.0"] ;
1028 -> 1029 ;
1030 [label="mse = 3.3351317999433612e+16\nsamples = 2\nvalue = 340777425.3"] ;
1028 -> 1030 ;
1031 [label="mse = -128.0\nsamples = 1\nvalue = 880674609.0"] ;
1027 -> 1031 ;
1032 [label="mse = 375.0\nsamples = 1\nvalue = 66976317.0"] ;
1026 -> 1032 ;
1033 [label="runtime <= 2.0\nmse = 5698784247276132.0\nsamples = 3\nvalue = 151366086.3"] ;
1021 -> 1033 ;
1034 [label="mse = 0.0\nsamples = 1\nvalue = 89289910.0"] ;
1033 -> 1034 ;
1035 [label="original_language <= 4.5\nmse = 4915217126023488.0\nsamples = 2\nvalue = 197923218.5"] ;
1033 -> 1035 ;
1036 [label="mse = 0.0\nsamples = 1\nvalue = 268031828.0"] ;
1035 -> 1036 ;
1037 [label="mse = 0.0\nsamples = 1\nvalue = 127814609.0"] ;
1035 -> 1037 ;
1038 [label="runtime <= 2.5\nmse = 395401791207552.0\nsamples = 2\nvalue = 477525139.5"] ;
1020 -> 1038 ;
1039 [label="mse = 0.0\nsamples = 1\nvalue = 457640427.0"] ;
1038 -> 1039 ;
1040 [label="mse = 0.0\nsamples = 1\nvalue = 497409852.0"] ;
1038 -> 1040 ;
1041 [label="runtime <= 2.1\nmse = 7164852628351360.0\nsamples = 10\nvalue = 910522161.2"] ;
1019 -> 1041 ;
1042 [label="runtime <= 1.6\nmse = 9669266738022272.0\nsamples = 5\nvalue = 843475792.5"] ;
1041 -> 1042 ;
1043 [label="runtime <= 1.5\nmse = 498040196754816.0\nsamples = 2\nvalue = 922432367.3"] ;
1042 -> 1043 ;
1044 [label="mse = 0.0\nsamples = 1\nvalue = 938212738.0"] ;
1043 -> 1044 ;
1045 [label="mse = 128.0\nsamples = 1\nvalue = 890871626.0"] ;
1043 -> 1045 ;
1046 [label="runtime <= 1.9\nmse = 9187227581747456.0\nsamples = 3\nvalue = 796101847.6"] ;
1042 -> 1046 ;
1047 [label="runtime <= 1.7\nmse = 642779882434816.0\nsamples = 2\nvalue = 680364328.0"] ;
1046 -> 1047 ;
1048 [label="mse = 0.0\nsamples = 1\nvalue = 705717432.0"] ;
1047 -> 1048 ;
1049 [label="mse = 0.0\nsamples = 1\nvalue = 655011224.0"] ;
1047 -> 1049 ;
1050 [label="mse = 0.0\nsamples = 1\nvalue = 873260194.0"] ;
1046 -> 1050 ;
1051 [label="runtime <= 3.2\nmse = 1155058062388096.0\nsamples = 5\nvalue = 951781465.1"] ;
1041 -> 1051 ;
1052 [label="runtime <= 2.4\nmse = 667552701458816.0\nsamples = 4\nvalue = 958482556.8"] ;
1051 -> 1052 ;
1053 [label="mse = 0.0\nsamples = 1\nvalue = 976475550.0"] ;
1052 -> 1053 ;
1054 [label="genre_Family <= 1.5\nmse = 758518199866496.0\nsamples = 3\nvalue = 949486060.2"] ;
1052 -> 1054 ;
1055 [label="runtime <= 2.8\nmse = 1655510204160.0\nsamples = 2\nvalue = 959885714.3"] ;
1054 -> 1055 ;
1056 [label="mse = 0.0\nsamples = 1\nvalue = 958400000.0"] ;
1055 -> 1056 ;
1057 [label="mse = 0.0\nsamples = 1\nvalue = 961000000.0"] ;
1055 -> 1057 ;
1058 [label="mse = 640.0\nsamples = 1\nvalue = 876688482.0"] ;
1054 -> 1058 ;
1059 [label="mse = -896.0\nsamples = 1\nvalue = 871368364.0"] ;
1051 -> 1059 ;
1060 [label="genre_Fantasy <= 1.6\nmse = 1.1050599387784909e+17\nsamples = 12\nvalue = 923125490.6"] ;
1018 -> 1060 ;
1061 [label="runtime <= 1.7\nmse = 1.019614387413577e+17\nsamples = 9\nvalue = 1019675429.0"] ;
1060 -> 1061 ;
1062 [label="company_Prime_Focus <= 28.1\nmse = 8.25668358713367e+16\nsamples = 3\nvalue = 836279950.4"] ;
1061 -> 1062 ;
1063 [label="runtime <= 1.6\nmse = 1989221236271296.0\nsamples = 2\nvalue = 693999014.5"] ;
1062 -> 1063 ;
1064 [label="mse = 0.0\nsamples = 1\nvalue = 738599701.0"] ;
1063 -> 1064 ;
1065 [label="mse = 0.0\nsamples = 1\nvalue = 649398328.0"] ;
1063 -> 1065 ;
1066 [label="mse = 0.0\nsamples = 1\nvalue = 1405403694.0"] ;
1062 -> 1066 ;
1067 [label="runtime <= 1.8\nmse = 8.853987702381466e+16\nsamples = 6\nvalue = 1103037010.2"] ;
1061 -> 1067 ;
1068 [label="mse = 0.0\nsamples = 1\nvalue = 1519557910.0"] ;
1067 -> 1068 ;
1069 [label="runtime <= 1.8\nmse = 3.2286724977800576e+16\nsamples = 5\nvalue = 946841672.8"] ;
1067 -> 1069 ;
1070 [label="mse = 0.0\nsamples = 1\nvalue = 709709780.0"] ;
1069 -> 1070 ;
1071 [label="runtime <= 2.0\nmse = 2.7718455556800896e+16\nsamples = 4\nvalue = 980717657.4"] ;
1069 -> 1071 ;
1072 [label="mse = 0.0\nsamples = 1\nvalue = 1153304495.0"] ;
1071 -> 1072 ;
1073 [label="runtime <= 2.6\nmse = 2.212555653789389e+16\nsamples = 3\nvalue = 911682922.4"] ;
1071 -> 1073 ;
1074 [label="runtime <= 2.3\nmse = 986971959875328.0\nsamples = 2\nvalue = 791868139.3"] ;
1073 -> 1074 ;
1075 [label="mse = 0.0\nsamples = 1\nvalue = 836297228.0"] ;
1074 -> 1075 ;
1076 [label="mse = 128.0\nsamples = 1\nvalue = 769653595.0"] ;
1074 -> 1076 ;
1077 [label="mse = 0.0\nsamples = 1\nvalue = 1091405097.0"] ;
1073 -> 1077 ;
1078 [label="runtime <= 2.0\nmse = 1.2562360508684544e+16\nsamples = 3\nvalue = 614165687.6"] ;
1060 -> 1078 ;
1079 [label="runtime <= 1.7\nmse = 150859330509376.0\nsamples = 2\nvalue = 669936811.5"] ;
1078 -> 1079 ;
1080 [label="mse = 0.0\nsamples = 1\nvalue = 691210692.0"] ;
